437 500
plane 0.190321 -0.363005 -0.323335 -0.0385788 0.186163 0.226786 -0.0362542 -0.421886 0.171319 -0.110257 0.286827 0.0279147 -0.251669 -0.195473 0.0972409 -0.45299 0.534814 -0.180875 -0.447826 0.229936 -0.0117952 0.121107 0.210317 0.117682 -0.521165 -0.40101 -0.0541209 -0.212515 -0.0871011 0.115273 0.131525 0.0366992 -0.180074 -0.140506 -0.147831 -0.371305 0.185238 0.130788 0.297351 -0.221959 0.0304088 0.0444585 -0.262261 0.355591 -0.150575 -0.310638 0.073011 0.172846 0.0924989 0.334558 -0.10756 -0.12812 0.134072 0.202433 0.145905 -0.176174 0.0920222 -0.456969 -0.127492 0.141845 0.0366605 -0.461517 -0.0656589 -0.0586102 -0.371836 0.0160642 -0.127571 0.260618 0.333937 0.0571189 0.149282 -0.103159 -0.014768 0.306271 -0.581988 -0.275907 0.235566 -0.373484 0.193774 0.407762 -0.136694 -0.105452 0.257735 -0.0206738 0.22952 -0.472943 -0.031317 -0.157007 0.129016 0.0539362 -0.329659 0.0635789 -0.593861 -0.186516 -0.160749 -0.416469 0.143966 0.525986 -0.0295244 0.168248 -0.472407 0.040333 0.217238 -0.0842644 -0.0788657 0.0770241 0.224777 0.0685 -0.188748 0.0678718 0.00947079 0.0237014 0.172183 -0.116919 0.126267 -0.290717 -0.0475887 0.0838322 0.142866 0.138645 -0.0602066 0.0146909 0.0854894 -0.248857 -0.133796 -0.287324 0.0407014 0.278013 0.0722035 0.325419 0.32896 -0.10193 -0.222477 -0.0185701 -0.199024 -0.0922108 -0.196645 0.0562443 -0.0259722 -0.0708924 -0.1539 -0.132271 0.259742 -0.0715531 0.20484 0.11069 0.363722 0.0292568 0.0126144 0.153255 0.467715 0.0488228 -0.304151 6.76441E-4 -0.222201 -0.15594 0.37203 -0.173023 0.330848 -0.263573 0.219561 0.240201 -0.0904722 -0.147803 -0.0296265 0.219773 0.0888174 -0.127918 -0.214467 -0.434541 0.0618381 -0.113087 -0.194718 0.0546986 -0.210999 0.0104355 0.1934 -0.163534 -0.0399492 -0.228882 0.149345 -0.0486609 0.206883 -0.154607 -0.00215188 -0.0363698 0.216473 0.119315 -0.0601148 -0.0115268 -0.212805 -0.188102 -0.0901756 0.189637 -0.0110392 0.129429 -0.140917 -0.0288731 -0.147327 0.394413 0.244084 0.0387837 0.0248211 -0.0600166 0.247711 0.306873 -0.0261683 0.0265626 -0.326124 -0.145425 -0.0483263 -0.0318127 0.0227405 -0.0524568 -0.354492 0.0702103 0.127684 -0.0402484 0.168617 0.261962 0.0840393 -0.231833 0.239973 0.284429 -0.0171793 -0.165409 -0.156607 0.263952 -0.25829 -0.456296 1.36126E-4 0.422404 0.358115 0.0912934 -0.193077 -0.0392918 -0.0808039 -0.320057 -0.0651531 0.0330426 0.0671819 -0.00770923 -0.4123 0.0050215 -0.129208 -0.0446342 -0.0131858 -0.320199 0.294788 -0.0185397 -0.0324608 -0.0946201 0.203993 0.215862 0.235141 0.348919 0.014646 0.107323 0.154405 -0.0934578 0.126488 0.195568 -0.181736 0.12306 0.287087 0.00854404 -0.0862032 0.209048 0.425908 -0.386569 -0.233334 0.143638 0.111566 -0.0198964 -0.106926 -0.132369 -0.0444587 0.0245866 0.0741397 -0.170854 -0.188819 0.45614 0.352273 0.0712865 -0.117287 0.0715301 -0.135359 -0.204943 -0.128219 -0.215661 0.12949 -0.385117 0.170114 0.294889 -0.239959 -0.27761 -0.136952 0.398653 0.261367 -0.018922 0.0900541 0.246003 -0.0152685 0.0236996 0.147312 -0.111428 0.239226 -0.0856685 0.30077 -0.255909 -0.149186 0.0589298 -0.0806645 -0.439432 -0.141929 0.410803 0.197905 0.497397 0.0342041 -0.117322 0.152689 -0.0896166 0.145176 0.148078 -0.112187 -0.0669264 0.0493744 -0.0164563 0.07664 0.0243007 0.163427 0.0472063 -0.0639843 0.209227 0.00612222 -0.292599 0.177959 -0.283484 0.478112 -0.0824466 -0.0115516 -0.174119 -0.243145 0.00807453 -0.467065 -0.280089 -0.157103 0.15489 0.141407 -0.222543 0.154427 5.46347E-4 0.0886912 0.0481009 -0.23468 -0.320405 -0.224047 -0.0081337 0.330066 0.0386219 -0.0838809 0.324764 -0.131463 0.117377 0.242311 0.143244 -0.118378 0.143096 -0.370229 -0.0581319 0.0136798 -0.00462408 -0.0267193 0.0512749 -0.113488 0.14742 -0.337019 -0.159942 0.0177078 0.0516685 0.439455 -0.0215999 -0.109569 -0.164244 0.0378521 0.0872236 0.271282 -0.0238893 -0.0240778 -0.159683 -0.130159 -0.285721 0.189509 0.299765 0.135817 0.00394429 0.176235 0.313836 0.153886 0.121373 -0.2119 0.0806215 -0.162452 0.120752 -0.216268 0.016239 -0.16594 0.236045 0.151061 -0.014184 0.0846024 -0.258018 0.270035 -0.0875136 0.30047 0.154608 -0.282368 -0.113133 0.0303209 0.293402 0.0358302 0.0497168 -0.115779 -0.116823 -0.260805 -0.054499 -0.0597273 0.203094 0.358048 -0.0740304 0.118461 -0.0696336 0.00540102 -0.385106 0.00378364 0.0179099 -0.125656 -0.26026 0.259496 -0.123119 -0.0323768 0.250983 0.225386 -0.0461411 0.0977316 -0.481294 -0.224418 0.0980239 -0.0356791 -0.107932 0.124205 0.0543697 -0.252628 0.440092 0.0480757 -0.129854 -0.040141 0.0349729 0.113552 -0.154062 0.243266 -0.20528 0.00898811 -0.0931322 0.254338 -0.0771173 0.110215 0.261954 0.428067 0.204685 -0.271172 0.0444443 0.0152178 0.373521 0.170481 0.321379 -0.605154 -0.391918 0.112934 0.147837 -0.10839 0.244209 -0.225721 -0.134004 -0.232773 0.147565 0.11896 0.295827 -0.0190446 0.108749 -0.386187 0.263364 -0.0902398 -0.327183 0.0610658 -0.248879 0.235176 -0.156761 0.11765 0.239211
stupid -0.267849 0.185388 -0.32974 0.223588 -0.148782 0.0327165 -0.269798 0.00312685 -0.272989 0.319794 -0.31078 -0.113725 -0.416313 0.178547 -0.176498 -0.399728 0.229728 0.172853 -0.220694 -0.0169243 -0.104834 -0.0232853 0.143306 0.202029 0.185209 0.0322871 0.0863992 -0.00845231 -0.0896028 -0.0700897 -0.212267 0.190468 0.0701764 0.348456 -0.121694 -0.0715309 -0.107055 0.197694 0.0177178 -0.0715072 -0.122176 0.012136 -0.228231 -0.0811189 0.0400519 0.0155244 -0.168226 0.263615 0.241313 -0.0857394 -0.10901 -0.321268 -0.244415 0.192205 0.314117 0.00212534 -0.0435978 -0.0894148 -0.0558614 0.208791 -0.216788 -0.0638634 0.168755 -0.0494738 0.0965526 -0.20513 0.271997 0.0836386 0.268963 0.127198 -0.137719 0.0367489 0.163296 0.15081 -0.0580548 -0.0153287 0.29976 0.0446378 0.286446 -0.339947 0.156351 0.0252324 0.0914863 0.0749866 -0.0618534 0.0474856 -0.232801 -0.0130815 -0.103743 -0.0232869 0.139089 0.420977 -0.280088 -0.00194752 0.0598851 0.0201343 -0.178064 0.270246 0.0959386 0.0309944 -0.102449 0.15805 -0.0461608 -0.0923319 0.293151 -0.0584546 -0.136987 -0.130577 0.0125589 0.215392 -0.382989 -0.0794064 0.497522 0.0372529 -0.0408771 0.0404137 -0.288955 0.233519 -0.0922604 -0.271565 0.0920426 -0.105604 0.200333 -0.0353293 -0.287305 0.0330373 -0.0411558 0.00735727 0.0895237 0.0146925 0.100294 -0.198877 -0.124014 -0.1353 -0.22836 0.0122353 -0.0256028 -0.148974 -0.381465 -0.0630752 -0.125834 -0.211057 -0.205355 -0.0811135 0.511132 0.0524478 0.0842849 0.370347 0.100849 0.0289545 0.199443 -0.121519 0.369988 0.195448 -0.462611 -0.167285 0.266789 0.112529 0.222651 0.112795 -0.0777233 -0.164485 -0.072387 -0.155372 0.0219404 0.129953 0.0714648 -0.101141 -0.112476 -0.0460645 0.0993821 -0.270482 -0.0181665 -0.00887173 0.131427 0.188022 -0.0229689 -0.0321374 -0.2787 0.126013 -0.106604 0.155526 0.012371 -0.115679 0.0104522 0.29041 -0.00799846 0.100888 -0.312432 -4.40683E-4 -0.0746167 0.0682756 0.0865614 -0.0571278 -0.533755 0.135996 -0.0976911 0.165683 -0.210798 -0.0323464 0.373189 0.322063 -0.0118939 -0.254165 0.0776529 0.288024 0.0700833 0.089342 -0.227241 0.183675 -0.190092 -0.0647257 -0.191123 0.282317 -0.201884 -0.00971272 -0.064035 -0.116714 0.404398 0.121912 0.18041 0.179991 0.0254278 -0.25064 -0.034371 -0.402445 -0.0932888 -0.137708 -0.124438 -0.354961 0.0566405 -0.228241 -0.0325546 0.0750747 0.0717216 0.143779 0.248548 0.0371668 0.129362 0.00146383 0.11803 -0.230693 -0.269165 0.197845 0.0910495 0.252114 -0.133418 0.241616 -0.0661989 -0.0932165 -0.00940728 -0.0887428 0.0395739 -0.0771547 0.213339 0.0512693 -0.0929962 -0.198222 0.12629 0.0557066 0.0629251 -0.129104 0.0903241 -0.305143 0.125323 0.15103 -0.0895531 -0.0407558 0.218873 -0.204196 0.205963 0.0011827 0.0877727 0.0041808 -0.0257479 0.191536 0.109398 0.0747743 0.00618538 -0.132108 0.0654361 0.175036 -0.106856 0.124834 -0.154579 7.638E-4 -0.0675544 0.00400829 0.472646 -0.193782 -0.0571196 0.0407149 -0.0484432 0.110695 -0.00744502 -0.0259529 -0.046227 -0.032904 0.133512 0.304494 -0.0950997 0.0216417 -0.0705862 -0.203712 -0.138976 0.0676895 0.0783203 -6.10773E-4 -0.298539 0.150374 0.181137 0.0351802 0.520675 0.229942 0.00912181 0.207205 0.184438 0.0812084 0.0236459 -0.134474 0.0640158 -0.430904 -0.00900322 0.0211875 -0.404352 0.426525 -0.177214 0.102171 -0.148115 -0.116153 0.0875041 0.422597 0.294573 0.0830157 -0.0951557 0.273031 -0.00435686 0.00786902 0.025183 0.0405602 -0.0799346 0.205979 -0.145952 -0.133171 -0.250861 -0.259242 -0.119642 0.0154171 0.143916 -0.257906 0.00277298 -0.110998 -0.075735 -0.202545 0.211458 -0.0490648 0.0821776 -0.167734 0.29839 -0.184119 0.0447262 0.25974 -0.370762 0.0853133 -0.0183408 -0.562037 0.383707 -0.174059 -0.0653561 -0.401314 -0.0879884 0.0281984 -0.333525 -0.0849346 0.239016 0.237945 -0.15024 -0.188874 -0.0150373 0.0396451 0.0201703 -0.335399 0.152065 0.275779 0.29705 0.0600749 0.0539252 -0.440374 -0.172254 -0.0687126 0.280263 0.123663 -0.0383961 -0.277854 0.279204 0.0988343 -0.336151 0.141631 0.052512 -0.0935699 0.0175321 -0.279614 0.10001 0.00391568 -0.0670336 -0.106307 -0.327822 0.202018 0.104705 0.0495695 0.0905999 0.159646 0.0547503 -0.0875807 -0.141061 0.0929046 0.0502162 0.130574 -0.0106701 -0.304407 0.153673 0.0508422 -0.28883 -0.17531 -0.269733 -0.220273 -0.148107 0.0479251 0.0748419 -0.0661005 0.32397 -0.22547 0.0609559 0.191662 -0.385362 0.0694071 0.266455 0.172685 0.164616 -0.0278474 0.0100465 0.0259488 0.0512252 -0.182895 0.260125 -0.0345627 0.0886538 0.130358 -0.320644 0.191123 -0.310889 -0.0431892 0.0437411 0.368698 -0.1226 -0.110279 -0.0475194 0.0485832 -0.0488687 -0.0699421 8.95523E-4 -0.00746939 0.0697775 -0.310221 0.252103 0.171602 0.0647235 0.182207 0.0205423 -0.187725 -0.0192679 0.260066 -0.0961408 0.198178 -0.267643 -0.271348 -0.239968 -0.144404 -0.0457447 -0.0826188 0.244676 -0.163461 -0.177815 -0.525152 0.067132 0.295635 -0.399874 -0.269324 -0.0117212 -0.104641 0.0204052 -0.101232 -0.00540014 0.203188 -0.255584 0.0317071 -0.11745 0.18423 -0.320949 0.257608
egg -0.0971118 0.432426 -0.372326 -0.177021 -0.386779 0.194862 -0.0847304 -0.0938665 0.285015 -0.114299 -0.224176 -0.0654142 -0.622396 -0.177175 0.220726 0.276882 0.417687 0.170486 -0.205859 0.029786 0.0715631 -0.0517393 -0.31166 0.146304 0.268171 0.0460471 0.110718 0.0770151 0.025501 0.0823196 -0.198283 0.137115 -0.0347808 0.368333 -0.237449 0.139289 0.194572 0.195376 0.429798 -0.321325 -0.0839252 0.202156 0.106957 0.152045 -0.420775 0.155223 -0.029937 -0.0589255 0.384013 0.480569 -0.158445 0.267071 -0.118279 -0.293608 -0.0139538 0.115351 0.0599493 -0.101031 -0.209317 -0.172851 0.326352 -0.086926 0.231273 -0.131164 -0.153857 -0.109057 -0.310824 -0.023901 -0.0326313 0.0672514 -0.143073 -0.281478 0.342366 0.0336104 -0.110964 -0.332858 -0.210897 -0.132447 0.24249 0.0159937 0.018653 -0.108539 -0.392455 -0.284999 -0.0322072 0.134616 -0.389697 -0.181907 0.227329 -0.108092 -0.259425 -0.278786 0.0970261 0.199329 -0.0593159 -0.489888 0.435541 0.127926 -0.24998 -0.184713 0.0136325 0.254641 0.184425 0.0552461 0.148322 -0.177446 0.097468 -0.130116 -0.38187 -0.222532 0.0175093 -0.0374031 -0.158363 -0.377515 0.0758081 -0.208716 -0.285597 0.249317 -0.0150218 0.183469 0.40175 -0.499767 -0.120095 0.339284 -0.135079 0.147895 0.0976467 0.203264 0.00931459 -0.189168 0.168383 -0.544691 0.0491895 -0.346705 -0.16604 0.112425 -0.230169 -0.215127 -0.44556 0.0504887 0.252189 -0.103046 0.0333682 -0.184931 0.0126928 0.00969453 0.0374929 0.154652 -0.0427303 -0.182042 -0.0581604 -0.153378 -0.303074 0.19166 -0.119104 0.285376 0.0281404 -0.335346 0.0837879 0.355774 -0.119775 0.0530779 -0.0354017 -0.117055 0.122727 -0.046614 -0.34241 0.429053 0.282806 0.0483445 -0.0433425 -0.0278494 -0.306037 0.062676 0.120812 0.147847 0.121212 -0.0742182 0.309989 0.0539245 0.209906 -0.156052 0.120644 0.117357 -0.143148 0.00766427 0.086765 -0.318899 -0.372657 -0.188057 0.0643893 0.0872143 -0.340398 -0.078386 0.0336335 0.0995229 0.324042 0.172042 0.357946 0.290154 -0.109197 0.174156 -0.109058 -0.496434 0.186784 -0.00947468 0.171599 0.52668 -0.136353 -0.0249034 -0.304309 -0.281643 0.100383 0.396146 -0.193998 -0.423681 -0.0424025 0.137158 0.0771061 -0.0901722 0.112964 0.182868 -0.173535 -0.192865 -0.286683 0.0427106 0.331642 -0.281335 -0.161553 -0.405423 -0.0531391 -0.171077 0.249468 0.0409674 0.10823 0.247665 0.0536526 0.185316 0.143136 0.446281 0.116992 -0.110665 0.2724 -0.237408 0.392775 -0.100871 0.196919 0.645416 0.403224 -0.168915 -0.135306 0.236799 -0.201588 -0.127109 -0.237288 0.209886 0.141453 -0.405139 0.0947821 0.143485 0.359767 0.232732 0.00595273 0.147174 0.0840515 0.335493 0.0689706 -0.324421 -0.343065 -0.137221 -0.511568 0.0964969 -0.123142 0.154907 -0.479534 0.0773998 -0.122024 -0.132441 -0.0203973 0.221342 -0.271185 -0.109352 -0.0394792 -0.0111021 -0.176298 -0.0251872 0.160702 -0.0367954 0.173914 -0.50171 0.224844 -0.360442 -0.102442 0.265059 0.128168 0.14338 0.130181 0.247343 -0.178699 0.32809 -0.199369 0.0390337 0.43034 -0.33433 -0.228468 -0.054277 0.261377 0.206831 0.0397482 0.331809 0.34356 0.400244 0.0913399 -0.015582 -0.12794 0.139576 -0.0294335 0.0706274 -9.29412E-4 -0.122392 -0.142768 -0.0375987 0.105486 -0.0104307 -0.0242992 0.0770065 -0.243413 0.119337 0.172674 0.220561 -0.0508794 0.00604344 -0.166697 0.0390296 -0.0961553 -0.0598475 0.240058 -0.175633 -0.0687746 -0.236126 -0.365283 -0.0478212 -0.0429346 0.0065717 -0.223889 -0.3773 -0.52928 0.214985 0.435317 0.132025 0.344609 -0.112371 0.104999 -0.266219 0.0170098 0.164262 -0.0890799 -0.145361 0.397172 0.052723 0.124771 0.571728 0.130935 0.287352 -0.552684 0.393056 -0.133619 -0.137246 0.47106 -0.242706 0.120773 0.138354 0.266313 -0.034452 0.156363 0.119807 -0.0555455 -0.038572 -0.0446019 -0.111304 0.0961771 0.0692053 0.193978 0.0175167 0.258411 -0.273531 0.135676 0.262727 0.201635 0.167985 0.0908932 -0.190994 -0.158982 -0.236446 0.314596 -0.302757 -0.254842 -0.171469 0.0068368 -0.200243 -0.267232 -0.117022 0.0628046 -0.0950206 0.227463 0.155298 0.271183 -0.348567 -0.213361 -0.361846 0.365222 -0.269449 0.155064 0.0349606 0.303947 -0.0953939 -0.202012 0.255777 0.153099 0.100516 -0.334011 0.407218 -0.0110476 0.179166 -0.271117 0.0846044 0.195157 0.028773 0.157 -0.187298 0.172005 -0.108893 -0.250888 0.104153 -0.239938 -0.0439878 -0.17123 -0.0885197 -0.0260607 0.24504 -0.150125 0.0111331 -0.0828534 -0.0347657 0.0669417 0.13164 -0.0698472 -0.0053663 0.538553 0.139109 0.01043 0.224528 0.043469 -0.366384 0.003595 -0.0443327 0.271839 -0.140078 -0.427827 -0.0989742 0.294134 0.0552876 0.163692 0.0857547 -0.169737 -0.127633 -0.160259 -0.26466 0.212859 0.0614292 -0.222882 -0.316639 -0.314221 -0.0802471 -0.0964289 -0.0767239 -0.230915 -0.0202871 0.161155 -0.0261306 0.0118369 0.0743543 -0.0832208 0.350335 -0.0816557 0.419416 0.100857 0.0450984 -0.0191215 0.0447581 0.12845 -0.10414 0.246943 -0.0251835 0.00309267 -0.104606 0.213211 -0.177949 0.0104409 0.138829
year -0.0282302 -0.0412994 0.0195306 0.108639 0.15983 0.0458732 -0.198484 0.00191977 0.0412628 -0.16618 0.186477 -0.160316 -0.0579755 0.110771 -0.0400426 -0.248931 0.286474 -0.025975 -0.0953234 -0.141106 0.0176486 -0.0389912 0.0259264 -0.0673703 0.211742 0.3278 -0.1862 -0.0604113 -0.0489435 -0.0442954 0.08572 0.236544 -0.1946 0.0172098 -0.0265696 -0.17138 0.0751655 0.0366251 -0.288341 -0.239282 -0.0529106 0.153885 -0.269908 -0.11508 0.0952999 -0.195196 -0.0455574 -0.168573 0.0630268 0.382146 -0.00502888 0.190397 0.0758647 0.297628 -0.12348 -0.184778 0.182199 0.0229526 0.204874 -0.0748877 0.111387 0.0156019 0.0597426 -0.151453 -0.0384625 0.288674 -0.0766262 0.0232761 -0.0606947 -0.220434 -0.0434795 -0.0368179 -0.010422 -0.138975 -0.0435644 -0.0333143 0.223839 -0.255581 -0.241951 -0.163118 -0.0444393 0.0128341 -0.159726 -0.246985 -0.0593859 0.0816185 -0.178486 -0.0690493 0.167849 0.160039 -0.165568 0.0440727 -0.0935571 -0.139294 0.00240051 0.0246345 -0.107434 -0.0333163 -0.324611 0.085532 0.277118 0.121893 0.182767 -0.183214 -0.107194 -0.0310931 -0.178471 0.0557532 -0.142547 -0.0733081 -0.115256 -0.138604 0.242786 -0.157251 -0.0405685 -0.122532 -0.378708 0.120351 -0.0198389 0.202138 -0.0487576 -0.0105694 -0.240291 -0.0101355 -0.176983 -4.07496E-4 0.0446865 -0.0677309 0.0845602 0.105723 0.00300702 0.148561 -0.115552 -0.0990185 -0.114732 0.103931 -0.0425283 -0.0065681 -0.0793348 0.0758323 0.172418 0.0440033 0.0422764 0.117821 -0.146634 -0.0376177 0.135059 0.0081214 -0.0921948 -0.0244381 0.0334495 0.212165 0.137689 -0.19884 0.0308043 0.0242223 -0.245231 -0.0522366 0.0521866 0.00725169 -0.0224461 4.16693E-4 -0.153331 0.0295981 -0.0200375 0.0906075 -0.111263 0.080506 -0.105181 0.139939 -0.102299 -0.0882804 -0.131494 -0.272816 0.307778 -0.385537 -0.211072 0.0671041 0.174501 0.0417443 0.0475625 0.147664 0.102083 -0.110017 0.06668 -0.010209 0.121836 0.09113 -0.203752 0.194939 0.25922 -0.225337 0.136773 -0.168141 -0.135284 0.0474512 0.108199 0.00840727 0.0839155 -0.0798644 0.160285 0.162534 -0.0529596 -0.294892 0.0169686 0.0600097 0.177951 -0.116391 -0.0721267 0.27281 0.119385 -0.124995 0.247227 -0.252424 0.125128 -0.0904999 0.0303237 0.0293832 0.178042 -0.0610516 0.0836406 0.113695 -0.02232 -0.0138313 0.0976041 -0.0333351 0.288806 0.112033 0.222711 -0.111355 -0.100187 0.0387194 0.0634397 0.117957 0.0781171 -0.141249 -0.0891952 -0.227474 0.195928 0.0593542 0.018633 -0.0509304 -0.122524 0.268949 0.0793765 -0.0577803 0.151316 0.0771513 -0.0490333 0.116081 0.167325 0.12447 0.0421506 -0.0291936 0.156042 0.0030272 -0.303965 -0.123173 0.0575767 -0.0888512 0.246896 -0.128566 -0.0291767 0.0455991 -0.0500056 0.145225 -0.202045 0.0564348 0.183456 -0.0763662 -0.0416636 -0.0457089 0.186892 0.0632875 -0.397508 0.0072118 -0.0922927 0.137256 0.0351501 -0.108033 0.0813803 0.273265 -0.0825337 0.136662 0.279507 -0.118334 -0.0846148 -0.190885 -0.114421 -0.13293 0.0305588 0.199253 -0.0858814 0.190171 0.197719 0.206601 0.27126 0.0323212 -0.18067 0.0643303 -0.00974588 -0.145585 -0.0805785 -0.194863 -0.0279451 -0.228316 0.00277428 -0.306275 0.320537 0.109736 -0.00132512 -0.0624916 -0.12129 0.0221618 -0.133832 -0.00920704 -0.0302995 0.177058 0.0839883 -0.0727176 -0.0380275 -0.0839905 -0.0979884 -0.0517448 0.0668982 0.202912 0.126533 -0.0757843 -0.0160602 0.0151395 -0.1081 0.242817 -0.16412 0.0849222 -0.175194 0.0979622 -0.062594 -0.00837448 0.169951 0.13298 -0.267127 -0.0510389 -0.0316613 -4.09206E-4 -0.0766707 -0.0271599 0.0290217 0.104711 0.31265 0.150136 0.153567 0.178619 0.302924 -0.0366681 -0.0535061 0.121491 -0.0170602 -0.159846 0.0944153 0.00889195 -0.0318207 -0.0242838 -0.216555 0.149369 -0.188594 0.0707137 -0.171616 -0.0867301 0.153221 -0.0619363 -0.231185 0.0137636 0.0952608 -0.0646194 -0.237724 -0.209941 0.0369772 -0.0898534 0.0880513 -0.379497 0.109239 0.141246 -0.251727 0.212857 -0.12212 0.0206666 -0.0798381 -0.157353 -0.0777638 0.00117637 0.0356017 -0.052264 -0.0200403 -0.123163 -0.236074 0.0114328 -0.155579 0.0799165 0.00645301 -0.00378668 -0.100962 -0.114433 -0.0189007 -0.0183516 0.0745148 0.0476236 -0.0355161 -0.170649 0.0575012 -0.0318985 -0.143737 -0.163858 0.11718 -0.0535834 -0.0710221 0.049278 -0.100469 0.0667543 0.278408 0.0939349 0.0448756 -0.0662454 0.0130836 -0.075191 -0.229568 -0.349424 -0.116936 0.00115104 -0.0328276 -0.148798 0.253142 -0.142894 -0.0648718 -0.153482 -0.187281 -0.0195876 0.147237 -0.0952194 -0.219587 0.279061 0.378769 0.145805 0.0904578 0.0246719 0.131647 -0.00673128 0.0919609 -0.159026 -0.00532136 -0.182515 0.111183 -0.111093 0.0673129 0.0826541 0.0438136 -0.266789 -0.113671 0.175271 -0.134313 -0.221455 -0.0530924 0.109036 0.0304405 -0.435021 0.340356 -0.175635 0.143883 -0.277887 0.203233 0.00240845 -0.100285 -0.21508 0.0126984 -0.185718 0.0401027 -0.141293 0.0195523 -0.111877 0.143286 -0.293962 -0.0392844 -0.03423 -0.171878 0.0263563 0.282796 0.012854 0.156388 0.13356 0.0203664 0.0284489 -0.136984 0.175507 -0.0398976 -0.138218 -0.18949 -0.0712241 0.010652 0.0491022 -0.0385358 -0.371283
psychiatry -0.240471 -0.281849 -0.136787 -0.101627 -0.212399 -0.310178 0.37165 0.315043 0.213993 0.239257 -0.236337 0.0813808 0.0301585 0.13259 0.0811771 0.437714 0.229807 -0.169682 -0.354669 0.548995 -0.402357 -0.29074 0.537631 -0.424093 0.255023 -0.249451 0.0328744 -5.68063E-4 -0.215048 0.283265 -0.323977 0.205591 -0.280534 -0.178245 0.176562 0.248441 -0.164703 -0.169686 0.299333 -0.0104366 -0.463537 0.149448 0.0696354 0.231984 0.149176 0.164261 -0.256527 0.198567 -0.0659637 -0.296322 0.282689 0.303442 -0.443081 -0.128832 -0.200006 0.0339996 -0.214408 0.205783 -0.113996 -0.32072 -0.233405 0.181829 -0.214483 0.118767 0.520466 0.0280285 -0.133058 -0.163084 -0.289891 0.00647783 0.272879 0.101067 0.0502837 -0.069943 0.28584 -0.265066 0.135486 -0.0948951 0.0870518 0.473814 -0.0712023 0.320211 -0.295888 0.107198 0.249533 0.0529632 0.0548195 -0.103402 -0.338941 -0.178745 -0.0539628 -0.264069 -0.255527 0.0118492 -0.0084455 0.153206 0.338191 -0.0865723 -0.0940871 0.207228 -0.117153 0.304545 0.272612 0.163991 0.227308 -0.108825 -0.0123065 0.219101 0.122241 -0.187446 -0.0995896 -0.247736 0.0935195 0.0422901 0.0923512 0.509246 -0.19668 0.195893 -3.60433E-4 -0.287098 -0.262109 0.0708868 -0.365558 -0.0378627 -0.406677 -0.140871 0.0256711 0.0224526 0.318215 0.281312 0.374094 0.1612 -0.151211 -0.0625212 -0.0122548 0.0472942 -0.450891 -0.199611 -0.345574 0.00124631 0.620445 -0.148444 0.641852 -0.0325751 0.229922 0.205784 -0.365905 0.479975 0.136409 -0.132525 0.237788 0.0415884 0.227063 0.318273 -0.0263376 0.187525 -0.393676 0.0744468 0.099402 0.433993 -0.37454 0.08452 -0.143872 0.118182 -0.266194 0.12283 -0.220938 0.014074 -0.232994 0.107669 -0.2929 -0.589836 0.0633777 0.295778 -0.11306 -0.187582 -0.20515 0.0611458 -0.36755 -0.0616432 0.185274 0.111917 -0.202386 0.224329 0.261139 -0.214316 0.128112 -0.313961 0.0769782 0.337233 -0.00985125 -0.195597 -0.480839 0.062357 -0.0349939 -0.232081 0.346216 -0.258064 0.32331 0.466452 -0.313244 -0.145562 0.345931 -0.186876 -0.204925 0.310103 0.0284919 0.187421 -0.183494 0.236262 0.301244 0.194225 -0.160301 0.179225 0.3079 -0.0657794 -0.483909 -0.203406 -0.00980576 -0.222538 0.496892 0.0409487 -0.601203 0.309851 -0.0423714 -0.317033 0.0888581 -0.0302301 0.211837 0.150332 -0.203766 -0.00376936 -0.0478358 0.102144 0.428574 0.0502655 0.198072 -0.300489 -0.142149 0.262399 -0.0522735 -0.320874 -0.273523 -0.033423 -0.464612 -0.575482 -0.332204 -0.573669 -0.226758 0.0759588 -0.325501 0.289077 0.0952623 0.333325 -0.228713 0.530446 -0.164719 -0.031245 0.187888 -0.135054 0.245681 0.105089 -0.0407307 -0.0275925 0.0830972 0.119642 -0.0616579 0.190353 -0.141582 -0.47539 0.290007 -0.22967 -0.0555325 -0.181057 -0.0365418 -0.178578 0.371672 0.516388 0.676845 0.367451 -0.345922 0.32088 -0.331298 0.146852 -0.142209 0.317501 0.16501 -0.0734221 0.454519 0.133557 -0.163418 0.406645 0.0299869 -0.057947 0.0829208 -0.0969513 -0.345004 -0.0230985 9.95325E-4 -0.256614 -0.0515537 0.133059 0.0125544 0.389853 0.189254 0.170897 0.117726 0.350556 -0.0858876 0.188633 0.0947982 -0.265931 0.424508 0.00150118 0.204054 0.187834 -0.307795 -0.22847 0.350736 -0.638421 -0.137951 -0.497426 0.304224 0.483391 0.386526 0.176234 -0.0727264 0.116036 -0.403639 -0.312783 -0.0702036 0.556763 0.337469 0.0326682 -0.0280909 0.304897 0.0734 0.158221 0.0438667 -0.0161108 0.0980474 -0.320278 -0.180792 -0.102583 -0.0922319 -0.110846 -0.303244 0.0475896 -0.0263658 0.0988143 0.410591 -0.218074 -0.0851994 0.372168 -0.129808 -0.0339073 -0.0648847 0.0126903 -0.0230077 0.21617 0.0345717 0.138635 -0.108005 -0.184707 0.284147 -0.192424 -0.0117617 0.140225 0.0892012 0.275832 0.223647 -0.0521317 0.368738 -0.212185 0.095902 0.10635 -0.192112 0.163936 0.194365 0.0229268 0.210511 0.330591 0.10992 0.227066 0.20943 -0.151501 0.295064 -0.00461106 0.245654 0.369939 -0.0847703 -0.0920986 -0.0867022 -0.147249 -0.329864 -0.149826 -0.358724 -0.367107 0.0250178 0.636877 -0.103295 -0.899398 -0.0385429 -0.073042 0.176552 0.150649 0.398106 0.534722 -0.235965 0.214957 -0.189816 -0.0440548 -0.0615128 0.248389 -0.265954 0.0820907 0.138034 0.264413 -0.123593 -0.00884376 -0.125961 -0.103618 0.120288 -0.345869 -0.105425 0.0528817 -0.0327722 0.190832 -0.405386 0.142294 0.330613 -0.355227 0.254519 0.0287896 -0.377215 -0.258378 0.0381587 -0.412109 0.370425 -0.62413 0.0859793 0.28453 -0.0856474 -0.132844 -0.18085 -0.330369 0.319442 -0.139029 -0.357318 -0.324021 0.00560151 0.280176 -0.201938 0.208073 -0.338053 -0.329511 -0.299524 -0.148285 -0.653413 -0.0864192 -0.234604 -0.349763 -0.158658 -0.570318 -0.0243073 0.18133 0.224368 0.109729 -0.201952 -0.072837 0.063571 -0.275184 0.13998 0.0599472 0.0224201 0.283562 -0.396101 -0.622182 -0.073428 0.0361626 -0.531765 -0.0230829 0.139082 -0.127583 0.0428267 -0.0971449 -0.050972 -0.0674917 0.557951 -0.196116 0.0796192 0.538543 0.00987738 0.155101 0.0640961 0.154924 0.0441478 -0.424604 -0.335277 0.347164
asylum -0.477562 -0.122378 -0.174483 -0.0491436 0.199326 -0.0998745 0.0271912 -0.307023 0.0398612 0.245406 0.150139 -0.351226 0.0414417 -0.0977145 0.230526 0.297488 -0.3231 -0.0884337 0.45566 -0.195227 -0.324269 -0.10414 0.205607 -0.254189 0.0573131 0.104944 0.253685 -0.304534 0.247405 0.253599 0.0315969 0.0794062 -0.120117 -0.115272 -0.217217 -0.0475586 -0.129553 -0.207868 0.383723 0.448587 -0.384361 0.294828 -0.0920739 0.117393 -0.0536051 -0.104698 -0.0785831 -0.15481 0.244253 -0.068649 0.303244 -0.431082 0.26922 0.100609 0.549321 -0.0250396 0.18001 -0.322287 -0.123673 0.229109 -0.225286 -0.0252714 0.168883 0.174827 0.375144 0.129506 -0.349297 -0.0201187 0.0130828 0.0751475 -0.15214 -0.0558689 0.0104543 0.322615 -0.487749 -0.226067 0.0018221 0.142945 -0.219747 -0.117589 0.116708 -0.0429027 0.0598845 0.180109 -0.226999 -0.0594209 -0.448635 -0.157669 0.136851 0.169498 -0.293637 -0.0194061 -0.669841 0.0574211 0.068492 -0.0175432 0.0842913 -0.0695544 0.315789 0.289472 -0.104313 0.291813 -0.0536828 0.363713 0.110464 -0.420877 -0.0147452 0.429063 -0.105097 -0.0088442 -0.356452 -0.0450269 -0.106899 0.286145 0.0743564 0.109364 -0.359711 -0.168619 0.25641 0.257684 -0.216003 -0.188216 0.0377772 0.00728507 0.0253471 -0.214854 0.179417 -0.425178 0.115877 0.364372 -0.140859 -0.201611 0.099033 -0.444267 -0.220219 0.0401721 -0.0186383 -0.00549239 -0.675779 -0.420392 0.368121 0.195586 0.0851264 -0.171906 0.336696 0.136372 0.0750197 -0.27089 0.174769 0.102087 0.0373931 0.256134 -0.32709 0.418899 0.121069 -0.0340141 -0.169969 -0.381241 0.361512 -0.233934 -0.226955 0.247963 0.0298245 -0.54548 0.294268 0.175812 0.0155882 -0.0942216 0.429942 0.041038 0.288697 0.0468356 0.233452 0.0665252 -0.0397289 0.0658907 -0.177154 0.0371721 0.062411 -0.080959 0.105135 -0.0602662 0.296249 -0.147321 -0.028753 0.129196 0.144593 0.216901 0.228626 -0.0983532 0.018523 -0.235328 -0.0732557 0.190036 0.122385 -0.100403 -0.0435637 -0.210119 -0.240359 0.308139 0.418118 -0.18714 0.531315 -0.0400918 -0.0830077 -0.265384 -0.115714 0.110392 -0.0725167 -0.204081 -0.147688 -0.323042 -0.0382544 0.238433 -0.394868 0.0791316 -0.243679 0.280212 -0.0686619 0.00919014 -0.0514262 0.0591774 0.564837 0.0965087 0.158622 -0.362406 0.481676 -0.353043 0.108037 -0.37977 -0.325803 0.0173974 0.0371719 0.446733 -0.0517063 -0.475626 0.396796 -0.416458 -0.0862303 0.0036102 0.113267 -0.0982267 -0.111571 0.172914 0.109711 -0.0229775 -0.0458495 -0.242946 0.0475989 0.00715343 0.0856146 -0.651326 0.202575 0.0981121 0.0287843 -0.148661 -0.10968 -0.406643 0.0870673 0.292413 0.0439447 0.0490015 0.278487 -0.160174 0.344021 0.0587205 -0.171974 -0.158772 -0.0662499 0.14783 -0.247954 0.191892 -0.357632 0.321492 -0.561968 -0.178545 0.302716 -0.160268 0.0168351 -0.123915 -0.0765917 -0.175695 -0.409258 0.144914 -0.28749 -0.21849 0.00645653 0.0282878 0.278373 0.0190867 -0.0101396 0.0795046 -0.277058 0.403362 0.412787 -0.477683 -0.307704 -0.0121696 -0.0208295 -0.330362 -0.237643 -0.0663124 -0.185337 -0.381646 -0.483261 0.0128269 0.250029 -0.118049 0.158285 -0.16757 -0.00350902 -0.0910347 -0.272043 0.0401914 0.136505 0.26513 0.0389205 -0.399321 0.156784 0.169501 -0.452049 -0.309994 -0.0926991 0.261462 0.0630102 0.0779148 -0.147701 0.194147 0.175994 0.334138 -0.10757 0.261503 -0.03824 -0.020082 -0.0306599 0.256005 -0.156771 -0.137563 0.134076 0.110756 0.0725332 -0.087174 -0.471155 0.193887 -0.132714 -0.0738001 -0.133095 0.040538 0.375081 -0.00771343 -0.221178 -0.164005 0.377946 -0.486233 -0.338877 0.225076 -0.1223 0.0174337 0.268368 -0.181464 -0.0828435 -0.219106 -0.25393 -0.306009 0.00226413 0.566394 -0.119337 0.234173 -0.219541 -0.284213 -0.205244 0.268299 0.199677 0.200627 -0.290544 0.0712019 0.0696449 -0.03349 0.0716913 -0.293035 0.13905 -0.175961 0.0405402 -0.027482 -0.171093 0.441455 -0.0783113 -0.159583 -0.250218 0.701599 -0.108022 -0.016897 -0.362973 -0.227558 -0.0608061 -0.250103 -0.163113 0.0984508 -0.0387315 -0.177269 -0.293552 -0.00737141 0.154533 0.327838 0.230606 0.0716792 -0.0276394 0.149605 -0.367318 -0.239496 -0.271753 -0.254892 0.0541829 -0.338932 -0.319047 -0.0119859 -0.0273479 -0.278424 0.211704 0.1534 0.0458351 0.243944 0.0435683 -0.461947 -0.16202 0.0481701 0.214814 0.17585 0.164679 -0.125892 -0.0604417 -0.177755 -0.0572422 -0.160942 -0.375593 -0.203076 -0.259829 -0.130088 -0.0109057 -0.167584 0.0508385 0.337078 -0.102557 -0.157432 -0.309064 0.00488124 0.230629 0.247085 -0.492972 0.127151 0.203331 0.55124 0.133181 0.15301 -0.152846 -0.124249 0.291638 0.115259 -0.676189 0.14198 0.331398 -0.272972 0.0572348 -0.325272 0.0413902 0.301484 0.348946 0.0848566 -0.132707 -0.0971694 -0.440123 -0.164897 -0.0135529 0.327464 0.0100864 -0.18388 -0.26893 -0.471736 -0.188805 0.181046 0.0283115 0.222011 0.0734128 -0.355245 0.0591659 -0.113308 0.168889 0.0885438 0.0399734 0.0894952 0.0602619 0.421371 -0.148672 0.126006 -0.246448 -0.195423 0.195218 -0.131382 -0.312421 0.365417
manslaughter -0.249246 0.0501839 0.0540542 -0.0680328 0.278278 0.398904 0.193597 0.15449 -0.303249 -0.124915 0.188281 -0.0611495 -0.164249 0.299833 -0.632687 0.308778 -0.540239 0.167896 -0.260083 0.19731 -0.126496 0.18946 0.37027 -0.305591 0.498579 0.0370547 -0.109991 -0.321432 -0.359073 -0.00877043 -0.509707 0.0649098 0.62052 -0.115793 -0.315797 0.0999071 -0.224475 0.260371 -0.00328646 -0.044877 -0.363202 0.694405 0.395207 -0.0421823 -0.371885 -0.771537 -0.191229 0.0720549 -0.103743 0.0660483 0.392234 -0.342688 0.210552 -0.221913 0.19892 -0.00305355 0.0494793 -0.177761 0.294861 -0.160072 -0.431976 -0.724626 0.146474 -0.0393845 0.146831 0.0297757 -0.329052 0.561923 0.521434 0.194735 0.525028 -0.168356 0.152462 -0.384633 0.0441968 -0.158308 -0.0816253 -0.156113 0.188441 0.331659 -0.280465 0.448096 0.339578 -0.166209 0.325483 0.183907 0.0142698 0.0712523 0.399244 -0.0840869 0.30921 -0.289971 -0.404525 0.150142 0.478187 -0.230841 0.517012 -0.162153 -0.156893 -0.15898 -0.171637 -0.0999681 0.170461 0.246507 -0.0430081 -0.410216 0.427011 0.789331 0.239288 0.192396 -0.415825 0.0328316 -0.187343 0.0302385 -0.320762 -0.11634 -0.785397 0.172994 0.220255 -0.215338 -0.0529424 -0.215651 0.178552 0.207304 -0.143938 0.576155 -0.177255 0.500633 0.401901 0.172658 0.254933 -0.418163 -0.0729212 -0.252561 -0.368228 -0.273677 0.202913 -0.0678454 0.00570075 -0.23452 -0.406455 -0.37904 0.191583 -0.218472 0.436364 0.0521358 -0.0796411 0.508959 0.302794 0.20123 0.0308854 0.249261 0.168282 0.34442 -0.428001 -0.00637862 0.107434 -0.285639 0.00804148 0.168587 -0.0196946 0.1941 0.544586 0.119953 0.334958 -0.456137 -0.22636 0.0861269 -0.164632 0.212822 0.195093 0.31328 -0.16581 -0.0642408 -0.0987191 -0.00979781 0.0266856 0.0204059 0.0944208 -0.14269 -0.157451 0.227326 0.126609 0.0556229 -0.135219 -0.0389077 0.182428 -0.324901 -0.136349 0.273323 0.68197 -0.0480582 -0.284242 -0.270198 0.200996 0.00628217 0.16214 0.0189044 0.213088 0.204872 -0.0799454 -0.492104 0.200666 0.108414 -0.23272 -0.0347923 0.0683845 0.052625 -0.236267 0.187367 0.195012 0.0710098 -0.0278216 0.0197523 -0.207743 0.590562 -0.570792 0.233256 -0.0699809 -0.274549 -0.0289838 -0.139887 -0.0577967 0.0476855 0.433789 -0.323623 0.586776 0.238255 0.148669 -0.0608887 0.388473 -0.217362 5.38286E-4 -0.143112 0.0153294 -0.198674 0.0412034 -0.311811 0.0400254 -0.343414 0.0842798 0.0270163 -0.322022 0.429624 0.255752 0.175663 0.141524 -0.0686899 0.20225 0.248829 -0.189137 0.225695 0.0959231 -0.355582 0.0782866 0.323884 0.396863 0.0380789 -0.198333 -0.320589 0.298712 0.0985688 0.0136527 -0.150379 -0.0747885 0.183364 -0.0166599 0.168323 0.0877422 -0.403282 -0.107908 0.0637998 -0.0963427 0.265323 -0.0505912 0.189884 0.143347 -0.11145 0.296649 0.0468236 0.00235216 -0.106681 -0.00966661 0.460697 -0.157065 0.192766 0.0877471 0.139653 0.495753 0.363391 0.0602977 0.206536 0.322551 0.28101 -0.0462629 0.0130524 0.0892197 0.533183 -0.00845299 -0.0305434 0.244655 -0.0225481 -0.347799 -0.14441 0.00266545 0.180143 0.353122 0.00257784 0.53543 -0.17749 -0.0431652 0.207149 -0.640102 -0.626162 -0.00889741 -0.207538 -0.296396 0.0349896 0.194633 0.0635245 0.105243 -0.413729 0.236356 0.0494862 0.288913 0.76813 0.151026 -0.0099052 -0.421085 0.0154809 -0.261381 -0.0284118 -0.0430103 0.185102 -0.207085 0.19676 0.433308 -0.103026 0.325473 -0.611353 0.546791 -0.069494 -0.092803 -0.147493 -0.33284 -0.0773053 -0.524695 -0.355746 0.211607 -0.159153 -0.124279 0.281414 -0.0394934 -0.173212 -0.156938 0.272657 0.0525086 -0.59965 -0.0631171 0.189435 0.250009 0.38233 0.150181 -0.56714 -0.397389 -0.181708 -0.048749 -0.0125327 -0.0842422 -0.245724 -0.0101615 -0.0945735 0.284726 -0.18864 -0.0079255 0.029576 0.0623473 0.0384221 -0.0163025 -0.167066 0.0841071 -0.0799179 0.382848 0.280782 -0.102692 0.189734 0.166801 -0.143042 -0.0449842 -0.0966982 -0.0685087 0.299851 -0.346275 0.164065 -0.192439 0.0383921 0.481741 0.0810249 0.465687 0.102833 -0.105323 -0.973711 0.362967 -0.149796 0.206086 0.283065 -0.18461 0.204174 -0.755675 -0.218154 -0.246266 -0.11055 0.110011 0.481672 -0.511134 -0.274605 0.599415 0.0849325 -0.280242 0.126817 0.517212 0.0699465 -0.387638 -0.271591 -0.224818 -0.259359 0.00631903 0.0226154 -0.645533 0.158311 -0.442405 0.05168 -0.158624 -0.42132 -0.329215 -0.0968655 0.151683 0.48153 -0.505924 0.147736 0.028289 0.106493 -0.393071 0.620963 0.048244 -0.470685 0.513603 -0.00281315 0.0780568 0.158526 -0.0365683 0.169573 0.441843 0.0272564 0.238664 -0.673099 -0.115972 0.555895 0.0340295 -0.286144 0.526027 -0.0767192 0.319664 -0.407932 0.024816 0.0868142 -0.451905 0.00681981 0.517595 0.100014 -0.066094 -0.143375 -0.0250403 0.111202 0.119264 0.0125266 -0.0713679 -0.187965 0.208234 -0.276352 0.04309 0.238952 0.076455 -0.328806 -0.363729 0.0967561 -0.153885 0.369783 0.453297 0.0259137 -0.396306 0.142851 0.430024 0.0960959 0.030695 0.131117 0.272597 -0.234879 -0.237141 0.0809375
music -0.0466424 0.193257 -0.0972791 0.0132532 -0.222623 -0.029845 0.136481 0.0119508 -0.202095 -0.049679 0.148354 -0.0951724 0.101504 0.156165 -0.0541195 0.282966 0.304575 -0.0430711 0.0153372 0.0782202 -0.0357091 0.152048 0.0773792 0.353823 -0.0562549 -0.0356891 -0.0938733 0.0187064 -0.265986 -0.0722323 -0.072613 0.0170955 -0.54682 -0.176249 0.19844 0.469052 0.056337 0.0559112 0.126221 -0.396654 -0.0268308 0.319879 -0.146409 -0.0409416 0.218628 0.170364 -0.0787406 0.0376537 0.0493458 -0.253998 0.0846766 -0.156112 -0.015588 -0.00765516 -0.0714135 0.31495 0.0631172 -0.188202 -0.0427487 -0.0712906 -0.0365685 -0.0735114 0.0521381 0.0385499 0.0137608 0.0884835 -0.19498 -0.0695021 0.0851414 -0.0799619 -0.0567824 0.137749 0.29536 0.15642 0.0824361 -0.1343 -0.268113 0.167542 0.20534 0.324434 -0.156103 -0.0319 0.0324408 -0.104309 -0.120043 0.286518 0.0643463 -0.0791309 0.0671696 -0.243218 0.061885 0.161325 0.0599694 0.108818 -0.0641754 0.231937 0.101841 0.0842037 -0.124027 0.0408013 -0.206129 0.247339 -0.0793506 0.553483 0.0147266 -0.252541 0.316458 -0.0678869 -0.0517193 -0.10906 -0.204454 0.167932 -0.113871 -0.013601 0.0323747 -0.134273 -0.33441 0.216043 -0.126679 0.00808685 0.234469 0.204191 0.0426156 -0.24317 -0.0195415 -0.0954696 0.0720738 -0.0409262 0.0415393 0.166178 -0.260252 0.0622593 -0.327763 -0.0857597 0.0192951 -0.159792 -0.105779 -0.414089 0.0313808 -0.190925 0.202111 -0.17778 0.0830501 0.166033 0.0803657 -0.213843 -0.300724 0.290722 -0.282099 0.0679565 -0.074021 0.239925 -0.216047 -0.034097 -0.125915 0.171758 -0.0236374 0.180636 0.1866 -0.0924504 -0.451731 -0.0125502 -0.00668464 -0.0110862 -0.371664 0.489433 -0.290446 0.283053 -0.0973793 0.0680588 -0.187242 -0.125486 0.254171 0.227979 0.190996 -0.0527737 -0.193666 -0.0392706 0.218724 0.0937422 -0.0485698 -0.0604269 -0.050602 -0.356512 -0.123188 -0.0638342 0.0671875 -0.24398 0.318198 -0.0303739 -0.133523 -0.013607 0.0822942 -0.0468798 0.2039 0.227044 0.0509033 -0.00590166 -0.0172596 -0.176254 -0.0437726 0.263427 0.0500988 -0.143684 -0.143366 0.00406793 -8.45339E-4 0.123903 -0.141199 0.168366 0.248133 0.22932 0.139612 -0.079478 -0.0496377 0.276669 -0.0170816 -0.197436 0.0890298 0.0559222 0.0145521 -0.19058 -3.87388E-5 -0.00514285 0.0697919 -0.24601 0.40956 0.166889 -0.160798 -0.0389333 -0.102317 0.0298206 0.46712 -0.164477 -0.0484697 0.302903 0.0208505 -0.182824 -0.088948 0.0575402 -0.00850252 -0.229599 0.293439 -0.105894 0.0596345 -0.0300528 -0.0499102 -0.0850174 0.163095 0.00753608 -0.0321236 -0.0919227 0.0875015 -0.0281155 -0.130203 -0.166483 -0.175934 -0.0207421 -0.218387 -0.127174 0.0204688 -0.28059 -0.243866 -0.241525 0.0411035 -0.129276 0.149182 0.0729017 0.313563 -0.065839 -0.041512 -0.358365 0.319628 0.0526809 -0.508088 -0.0886829 0.0868839 0.231017 0.108632 0.502628 0.156215 0.095243 -0.0802212 0.379412 0.10953 -0.0373787 0.110014 -0.350293 -0.366476 -0.038311 0.20741 -0.0904446 -0.294254 0.207345 0.19024 0.195045 -0.178219 0.0526296 0.0194136 0.0701099 0.0827319 -0.316458 -0.0271549 -0.0677778 0.0310529 0.174758 0.0309709 -0.0181705 0.214282 0.302811 -0.0869837 -0.00496066 -0.212939 -0.177757 0.17701 0.354217 0.0337927 0.00620843 0.0158018 0.0520181 -0.206856 -0.193639 0.193602 0.0730007 0.167182 -0.0176464 0.107637 0.0941152 -0.242608 -0.411318 0.172883 0.233984 0.0644247 0.00653719 -0.150677 0.200493 -0.219286 0.0982888 -0.230563 0.453524 -0.0523728 -0.36904 0.151371 0.0528378 -0.15874 -0.168802 0.0776064 -0.251205 0.154403 -0.0329107 -0.14717 -0.00198761 -0.0776126 -0.00213406 0.196055 -0.14346 -0.043957 -0.211147 -0.00227623 0.104424 0.15876 -0.0792799 -0.377443 -0.0753273 0.0947426 -0.424587 -0.182722 -0.194543 -0.098261 0.137005 0.0156105 0.039285 -0.109881 -0.132215 0.247947 0.0696555 0.18034 -0.0124757 -0.0289854 0.0248076 0.12218 0.214314 0.0481187 0.0680441 0.176408 -0.0177454 0.220413 0.643733 0.222076 0.163286 0.372109 -0.0540253 -0.35822 -0.55009 0.230167 0.0138636 -0.132674 0.00234281 0.130394 -0.0266109 -0.154354 0.152701 -0.349297 -0.17677 0.280455 0.166845 -0.108479 0.183777 -0.358873 -0.253907 0.255961 0.0796769 -0.334793 0.0922513 -0.617041 0.115632 -0.0816056 0.0602066 -0.181452 0.144415 -0.346745 0.0864173 0.0394689 -0.00580712 -0.191589 -0.461716 0.31291 0.141705 0.0493199 0.274425 0.0999782 -0.238613 0.0683333 0.207956 -0.00698543 0.0453806 -0.0373682 0.140402 0.0694758 0.173786 -0.0702742 -0.242715 0.0676836 -0.0789735 0.0774391 -0.190824 0.143045 0.13799 0.00456282 0.0151044 -0.155228 -0.0348039 0.113603 0.353931 -0.191184 0.04983 -0.290021 -0.0607443 -0.256335 0.142189 0.0150998 -0.0128638 0.109887 -0.180513 -0.190569 0.190905 0.222673 0.366643 0.039041 0.215629 0.188428 -0.0113759 -0.230373 0.129475 0.142782 -0.146358 0.23599 0.0772674 0.188265 -0.0196586 0.134764 0.253759 -0.0892381 -0.359754 4.87518E-4 0.138777 -0.0579337 -0.0545732 0.284643 -0.116757 -0.112085 0.0255458 0.27099 -0.319539 -0.278024 0.0144961 0.0956169 -0.183998 0.166289 0.0419369
record 0.475512 0.0139329 -0.299731 0.143432 0.0827244 -0.178365 -0.0492157 0.0349912 -0.114612 0.0110087 0.184114 -0.205108 -0.235503 0.166834 -0.139535 0.0701246 0.190617 -0.139402 -0.0194287 -0.0899873 -0.184041 0.119794 -0.0213438 0.142519 -0.0993888 0.00416266 -0.063339 -0.0261146 -0.157702 -0.367191 -0.22474 0.0636766 -0.180303 0.126855 -0.347486 0.0477478 0.332034 -0.11587 0.166273 -0.481155 -0.172236 -0.0288077 -0.111507 -0.116559 0.134168 0.0708388 0.100322 0.011361 -0.205332 0.150631 0.101974 0.0371682 -0.165364 -0.0722834 0.431482 0.193997 -0.0874028 0.242663 0.0685707 0.0164159 -0.128393 0.165508 0.155934 -0.286424 -0.0770659 0.0210845 -0.0247763 -0.289309 -0.39462 0.0225377 0.110095 0.344879 -0.196506 0.0477147 -0.0789534 -0.147351 -0.240805 0.222895 0.371317 0.289463 0.168379 -0.154916 0.186781 -0.0287365 0.112532 -0.178074 0.108584 -0.165902 0.232533 0.27327 -0.13318 -0.243791 -0.176787 0.0365773 0.104271 0.225335 -0.175249 0.110899 -0.223591 -0.158562 0.17171 0.206988 -0.180423 -0.00375227 -0.0112568 0.0119254 -0.354726 -0.105231 -0.0639893 5.3145E-5 0.199038 -0.271109 0.155391 0.120863 0.0743456 0.269908 -0.497436 0.0689782 -0.245796 0.193993 -0.304047 0.306232 0.274701 0.139135 0.0766936 -0.0505394 0.0849091 0.137357 -0.186122 -0.0971481 0.195035 -0.00938612 -0.155199 -0.249693 0.227311 0.102748 -0.0249285 0.0101504 -0.225723 -0.173678 0.0137367 -0.0762885 0.217946 -0.167361 0.104113 0.226187 0.173677 -0.0368679 -0.336924 0.0841008 -0.00410146 0.206531 -0.110251 -0.110459 0.0274445 0.0375878 -0.138558 -0.123971 -0.0405061 0.184529 -0.0405222 -0.276522 -0.402424 0.106999 0.0321599 0.286913 -0.0878096 0.275787 -0.0679902 0.165776 -0.314976 0.0219266 -0.0430731 0.137813 -0.064115 -0.238581 0.0902832 0.00306439 0.309604 0.0386801 -0.355165 -0.0988943 -0.202322 0.0421041 -0.231395 -0.2517 0.0445742 -0.270583 -0.0851382 -0.23123 0.0559494 -0.0034555 -0.0420108 0.124271 -0.283686 0.0322874 -0.170292 0.137542 0.149342 0.127404 0.420034 -0.0413788 0.167638 -0.376161 0.0865463 -0.156365 0.244114 -0.0855255 0.155594 -0.142848 -0.144842 -0.0447442 0.196587 -0.180691 -0.0789936 -0.116164 -0.0376016 -0.268706 0.0122763 0.250502 0.0718757 0.122801 -0.136115 0.307533 0.113716 -0.355695 0.1217 0.284316 -0.253263 0.0128594 -0.0537529 0.0119886 0.0288707 0.111572 0.0519796 -0.147142 0.395488 0.0655544 -0.0840278 0.167156 0.0709015 -0.0509104 0.0386521 -0.0358658 0.446841 0.115718 0.448668 -0.327473 -0.101831 -0.00703816 -0.00577752 0.251987 0.0951458 -0.0739341 0.259169 -0.127238 0.222723 0.0905034 -0.172436 0.0292539 -0.00686946 -0.182353 -0.361558 -0.0875023 0.144689 -0.229045 -0.203241 -0.0352619 -0.0221363 -0.142246 0.401996 0.31231 0.0142724 -0.253148 -0.0796904 -0.216282 0.0936434 0.148675 -0.0501422 0.547259 -0.10857 0.191942 -0.217956 -0.396125 0.14026 -0.148754 -0.227064 -0.0575926 -0.124556 -0.091131 -0.0417276 -0.290547 -0.0984433 0.051389 0.349544 0.0997858 0.382749 -0.362192 0.155751 0.193422 -0.0896494 0.0325583 0.147428 -0.268173 0.0467381 -0.0731619 0.0666099 -0.249908 0.252249 0.137015 0.127387 0.125682 -0.215433 0.119885 0.102444 0.182606 -0.421447 0.465826 -0.0845364 -0.0735575 0.119394 -0.124214 0.205319 -0.00233668 0.392802 0.0934478 -0.193797 -0.154111 -0.113915 0.392419 0.123947 -0.240719 -0.456001 -0.239903 -0.283108 0.160413 0.071988 -0.0490272 0.354447 -0.107625 -0.283739 -0.419182 0.0174492 0.205175 -0.0153028 0.113556 -0.268768 -0.0320757 0.268928 0.183181 -0.121596 -0.0553974 0.198605 -0.293594 0.0845467 0.0859524 -0.130762 0.00233049 0.087632 -0.101045 -0.283954 -0.12543 0.013656 -0.188143 -0.477818 0.256468 0.112512 -0.112362 -0.191717 -0.124905 -0.147626 0.204935 0.313058 -0.00656278 -0.100066 0.172698 0.0923637 0.0372206 0.403972 -0.126197 0.131536 -0.160489 0.0500825 0.100706 0.157598 -0.218248 -0.0776444 0.0442705 0.132683 -0.0678199 -0.104169 -0.0701766 -0.0581864 -0.0725588 -0.165415 0.332147 -0.102175 -0.311347 0.142949 -0.0879306 -0.225906 0.0456635 0.260646 -0.291874 -0.371223 0.0731175 0.0391337 0.0269508 0.117722 -0.293958 -0.00104788 0.0954372 -0.211133 0.103557 -0.00360755 0.363058 -0.0881401 0.178706 0.217781 0.215351 0.143329 -0.0457431 0.137819 -0.0247907 -0.332495 -0.4334 0.12508 -0.110948 0.0624079 -0.0304056 0.282626 -0.461786 0.0523867 0.106129 -0.502799 -6.9681E-6 0.0951936 0.349224 -0.0852436 -0.0139765 -0.192564 0.288447 -0.165338 0.0660944 0.233694 0.104126 -0.018527 0.523601 -0.15041 -0.0337355 0.156821 0.234495 -0.404707 0.015415 -0.265806 -0.181812 0.0311711 -0.107741 -0.0405551 -0.164455 -0.0522324 -0.0984643 0.0849243 -0.107026 0.109487 -0.175762 0.00501581 0.0736561 0.00324103 0.0394303 0.0348911 -0.368136 -0.0673802 -0.402758 -0.0531164 0.00779074 -0.0159319 -0.0607815 0.0968355 -0.0369959 0.130368 0.207413 0.0607825 -0.329421 0.126755 0.156799 0.0701528 -0.118447 -0.268606 0.187238 0.0703572 0.343692 0.141555 -0.351494 -0.579118 -0.517823 0.00800312 -0.245071 -0.152539 -0.0903513
energy 0.765906 -0.0911015 0.0439241 -0.054877 -0.197326 -0.0443745 -0.00844976 -0.0445385 -0.0192037 -0.228881 0.0791079 0.193485 -0.0397527 -0.124107 -0.193732 0.227358 0.0552017 -0.0855295 -0.235477 0.265107 0.0255714 -0.147584 0.0977946 0.136679 0.230323 -0.177846 0.371466 0.235534 0.00865806 0.485811 0.0135377 0.440773 -0.0387869 0.196991 0.0403392 -0.137206 0.0701811 -0.140977 0.117247 -0.247165 0.0457494 0.228166 0.0971184 -0.021833 0.130655 -0.239783 -0.0995245 0.125609 -0.243502 0.0567987 0.217074 -0.0170303 -0.180847 -0.189814 -0.162051 0.23859 0.156966 -0.117672 0.349244 -0.104496 -0.143484 0.0540189 0.021076 0.12648 0.0839795 -0.0204889 -0.143739 -0.0327144 0.204693 -0.234532 -0.175771 -0.00661197 -0.382363 -0.271479 0.373994 -0.139482 -0.441697 -0.0241242 0.180569 -0.248984 -0.0252136 -0.0580123 0.00390197 0.0737716 -0.0534647 -0.0254595 -0.250006 -0.070906 -0.107534 0.158765 -0.163106 0.220367 0.129791 0.154483 -0.142196 0.124355 0.137606 0.267523 0.147796 0.0169376 -0.16005 0.376756 -0.166867 -0.308045 0.0783008 0.0712371 0.109915 0.0385233 -0.203044 0.349904 -0.621377 0.374123 -0.0359603 0.0213398 -0.167352 0.153154 0.0124821 0.276246 -0.0609235 0.241417 0.186565 -0.221408 0.354919 -0.331346 -0.134838 0.167433 0.00558573 0.0277612 0.143412 -0.211176 -0.0372031 0.335471 -0.165851 0.159437 -0.0260776 -0.281193 -0.258757 -0.351978 -0.288246 -0.0770991 -0.0874467 -0.325923 -0.0356389 -0.0749093 -0.285544 0.0793912 -0.358572 0.0381115 0.0295884 0.00544875 0.0655042 -0.321437 -0.106372 0.0122453 -0.256606 0.20191 -0.378299 -0.253978 -0.16628 0.135074 -0.131797 -0.0281396 0.112879 0.0434382 0.343725 -0.00590164 0.00393994 -0.254079 -0.0190721 0.0408931 0.122295 -0.357957 0.0535289 -0.0694402 -0.11333 0.254431 -0.0475556 -0.206758 0.217822 -0.319205 -0.0199391 0.247106 -0.0399558 -0.292865 0.0503185 0.353584 -0.296256 -0.0918333 -0.0154388 0.0714317 0.113127 0.032872 -0.0688443 -0.266441 -0.174609 0.251589 -0.00225319 0.039983 0.215966 -0.0619142 0.0588532 -0.191858 0.056186 0.0623112 0.227311 -0.304017 -0.0241597 -0.0653227 -0.15934 0.119248 0.0524706 0.0562427 0.374947 -0.0751915 -0.00164429 0.0950738 -0.12457 -0.0397194 0.128921 0.028898 0.280243 0.246777 0.0577412 0.283149 0.172094 -0.188512 -0.0238928 0.084247 -1.57125E-4 -0.33288 -0.203972 0.175781 0.0994818 -0.20612 -0.292648 0.0703869 -0.0564481 -0.193602 -0.0708897 0.10033 0.0795972 0.261572 -0.244752 -0.182483 -0.03121 0.122011 -0.066831 -0.0291606 0.321407 -0.321936 -0.298656 0.00242628 -0.227433 0.180225 0.137276 -0.185171 -0.242575 0.16418 0.139147 0.04616 0.319042 0.24478 0.139965 0.0896567 -0.00263822 -0.247775 -0.17828 0.171023 -0.0121242 -0.12554 -0.310153 0.117154 -0.208571 -0.0500055 -0.264239 0.0124659 0.194521 -0.267818 -0.00571666 0.0551806 0.239166 0.178385 0.202771 0.0571158 -0.230081 0.186378 0.113754 -0.147155 -0.0874113 -0.0584336 -0.246267 -0.241063 -0.305663 0.44075 -0.222117 -0.170549 0.0300037 0.0928794 -0.292967 -0.0116872 -0.0395483 0.0155054 0.166563 0.0326295 0.108797 -0.132327 0.0128609 -0.104547 -0.0638963 -0.0694074 -0.175675 0.0498076 -0.307596 -0.0247791 0.123841 7.61068E-4 -0.141546 0.00454932 0.360316 -0.0149671 -0.316238 0.0713882 -0.0246374 0.0482123 -0.045203 0.0708245 -0.104648 0.069437 -0.0667454 -0.0949177 -0.0444366 0.150759 -0.141276 -0.0990107 0.311329 0.484405 0.27783 0.215385 0.0684549 0.0661895 -0.460638 0.0349561 -0.0850044 0.0512261 0.0862277 -0.18422 0.176643 0.0796129 0.26097 0.0987209 -0.0815697 0.0971772 -0.317939 0.0396866 -0.114612 0.0425249 0.0853027 0.183641 0.167624 0.334266 -0.227034 -0.343666 0.136037 0.191308 -0.0707473 0.384593 -0.0992182 0.00212188 -0.265344 -0.0216102 -0.322308 0.27733 -0.176704 -0.148509 0.0327375 0.0728352 0.326111 0.0365252 0.121193 -0.134323 -0.1428 0.0394055 0.242798 0.0450188 0.0424358 0.223384 -0.111496 0.0730464 0.0586285 -0.248273 0.159714 -0.440676 -0.215609 -0.335894 0.299516 -0.0789806 -0.00322475 0.293992 -0.0138518 0.0247913 -0.172152 -0.00188822 -0.245656 0.0409465 -0.277858 0.117931 -0.0374887 0.0453827 -0.315784 -0.147632 0.114045 0.0357165 -0.0907559 0.0643895 -0.455408 0.242008 -0.152114 0.23464 -0.0487636 -0.0495021 -0.354578 0.0355053 -0.131001 -0.0992946 -0.339319 0.0749769 0.296805 0.0728103 -0.106328 -0.459865 0.183702 -0.221322 -0.146587 0.101505 -0.299993 -0.168426 -0.20802 -0.190409 0.0455704 0.398399 -0.0882653 -0.0499857 0.0834275 -0.115844 0.192305 0.20687 -0.148954 0.105376 -0.183991 -0.216194 0.23598 0.159751 0.0529172 0.10627 -0.101539 -0.0209282 0.196834 -0.185308 0.0689802 0.0422176 -0.173943 0.154366 -0.159617 -0.521683 0.0431573 -0.0480898 -0.0983271 -0.0350969 -0.251765 0.276526 0.0466728 0.0650984 0.168111 0.190968 -0.18388 -0.101851 -0.160467 -0.303952 0.0562361 0.166401 -0.0577628 -0.0280909 -0.0385598 -0.254647 0.230913 0.127241 0.425875 0.244261 0.00983908 0.0929494 0.158633 -0.0585353 0.422 -0.522016 0.0103657 -0.560269 0.0668641 0.268651 -0.0781242 -0.118003
announcement 0.189981 0.331766 -0.0255864 -0.0539741 0.0781826 0.195413 0.194345 0.34971 -0.114256 -0.138222 0.110531 -0.0250607 -0.0715122 -0.113755 0.036017 0.00537899 -0.0367073 -0.146472 -0.276019 -0.0434619 -0.178017 -0.445143 0.189884 -0.125763 0.0607814 0.168132 -0.324095 -0.321465 0.0928957 -0.00322082 -0.0321505 -0.100194 0.0627681 0.0690466 0.0301811 -0.00930656 0.162722 0.12047 0.00717913 -0.021439 0.0238057 0.0676696 -0.186392 -0.242706 -0.239685 -0.327966 -0.0856012 0.0186089 -0.0690909 0.206492 0.0443666 -0.271113 0.0633804 -0.11647 0.038178 -0.0350414 0.429678 -0.0631407 0.117391 -0.1139 0.346499 -0.335473 0.122353 -0.217422 -0.397422 -0.15166 0.0320358 0.107254 0.0578916 0.0936753 0.184009 0.243439 0.116665 -0.269993 -0.0222303 -0.0117321 0.106756 0.163203 0.207822 0.250704 -0.385343 -0.112025 0.0331022 0.0572661 0.0412157 -0.0234565 -0.186951 0.24736 0.0522966 0.100899 -0.189091 -0.0401274 -0.324284 -0.499223 0.0313712 0.203059 -0.0288795 0.199282 -0.304338 -0.0349248 0.151783 0.282797 0.0503335 -0.0115779 -0.0976251 -0.0250543 -0.193579 -0.14792 -0.111355 0.309174 0.259297 0.0710487 0.240487 0.218129 0.0203698 -0.482232 -0.023494 -0.00563797 -0.0881518 0.359587 0.465521 0.0946107 -0.147702 -0.0820426 0.0404753 0.130908 0.111185 0.196152 -0.0947906 0.0534079 0.147994 -0.0748993 -0.47552 -0.161894 0.0848083 -0.168788 -0.145413 -0.0952714 -0.270056 -0.18988 0.105976 -0.076953 0.278465 -0.115422 -0.234137 -0.170161 0.013711 -0.341009 -0.163079 -0.328479 0.171055 0.417822 -0.189657 -0.20486 -0.434676 0.0889038 0.00706235 0.190722 -0.0416007 -0.120757 -0.431796 0.267529 -0.211903 0.167261 -0.00130633 -0.227051 0.326045 -0.0515533 -0.130456 0.104108 -0.367547 -0.0961095 0.178024 -0.0333702 -6.87132E-4 -0.223443 0.186279 0.0207793 0.137675 0.198927 -0.0195227 0.217043 -0.0331995 0.0179311 -0.0483429 -0.370301 -0.308488 -0.256066 -0.319311 -0.0921096 0.163496 -0.0558966 0.088226 0.0713972 0.0638282 -0.160459 -0.216642 -0.105007 0.00393054 0.226054 0.34571 0.0530566 -0.114551 -0.110283 -0.241507 -0.0327611 0.00525286 -0.133694 -0.0946881 0.109869 0.0221967 0.236694 0.120651 0.044456 0.032639 0.296267 0.103583 -0.110779 0.287054 -0.0529737 0.247208 0.245421 0.196395 -0.213215 -0.120188 -0.152357 -0.0310683 -0.11415 0.234248 -0.0612435 -0.133058 -0.0792581 -0.369552 0.210727 0.0241496 0.383332 0.504922 0.157724 -0.101654 -0.189959 0.088348 -0.0585972 0.0701929 -0.0245523 -0.244685 -0.131587 -0.155368 0.558411 -0.139723 -0.199872 0.0907818 -0.408409 0.113438 -0.0616601 0.573228 -0.203372 0.111534 0.0107486 0.162233 -0.0182228 0.231754 0.204533 -0.120827 -0.231421 0.112453 0.0358135 -0.242015 -0.00892322 -0.0910722 -0.125883 -0.0538709 0.289518 0.246298 0.100395 -0.266673 -0.217117 -0.187246 -0.0130092 -0.138877 -0.206329 0.235072 -0.131271 0.0619241 -0.0453113 0.134675 -0.0720222 -0.218396 -0.0835719 -0.171801 0.0840387 0.139566 0.0492146 -0.128931 0.0932226 -0.0614467 -0.0752069 -0.159781 0.0938353 -0.0638809 0.11975 -0.132344 0.231672 0.189954 0.289869 -0.0374811 -0.405478 -0.174487 -0.0924807 0.0966008 -0.00171181 -0.0058427 -0.0836708 -0.10891 -0.114242 0.0870176 0.276703 0.118025 0.38223 0.395346 -0.0728609 -0.0857331 -0.0183871 0.0286866 0.140111 0.0823489 0.135544 -0.169303 0.274457 -0.00295972 0.0025524 0.299082 0.237091 0.134459 -0.151997 0.179192 0.110964 0.0459663 -0.203812 0.142629 0.183829 -0.203508 0.121115 -0.0338378 -0.108267 -0.134844 -0.142924 0.0157486 -0.172834 -0.0519039 -0.0765816 0.398363 -0.146926 0.0758237 0.172512 -0.033879 -0.118402 -0.0206505 0.0266759 0.283004 -0.0585173 0.0513205 -0.212884 0.0983379 -0.165814 -0.0324625 -0.167403 -0.0704958 0.0519391 0.0365438 -0.343664 0.0414641 -0.0584475 0.147803 -0.258377 0.259288 -0.239233 0.210751 -0.00691191 -0.162262 0.138952 -0.152534 0.277051 -0.110829 0.121982 0.321216 -0.215861 -0.0830355 0.281159 -0.200027 -0.0857237 -0.0684666 -0.0624051 0.0801113 0.199009 0.0196625 -0.157426 0.238616 0.423572 0.198826 0.216732 -0.0242848 -0.0817625 0.0541797 -0.346845 0.151739 -0.0146159 0.0392273 -0.32077 -0.305566 -0.103021 -0.0626166 -0.111478 0.193386 -0.0808133 -0.0921661 0.264912 -0.389081 -0.0529478 0.0442946 0.0556242 0.0108396 -0.204095 0.0260434 -0.311232 -0.231108 0.0816371 -0.138149 0.268853 0.170757 0.055784 0.194915 -0.404794 0.195144 -0.0469663 -0.0519055 -0.0865114 0.303607 0.0509073 0.346387 -0.188626 0.252229 0.0285395 -0.143965 -0.0300787 0.0449052 -0.210642 0.151839 -0.116347 -0.0310126 -0.011343 -0.0334234 -0.0927519 0.0915055 -0.0277994 0.100731 -0.368975 -0.124123 0.228385 0.0577265 0.259301 0.00911424 -0.137263 -0.251926 -0.484816 0.177128 -0.235484 0.344029 -0.30049 -0.0781876 -0.0837458 -0.21465 0.0835443 -0.167813 -0.0776077 -0.288843 0.08641 -0.124176 -0.184535 0.102236 -0.00212982 0.271989 0.292279 0.0506632 -0.0619701 -0.188489 0.242446 0.188877 0.120701 0.0181313 0.0878478 -0.283564 0.0175962 -0.280154 -0.291128 0.0235608 -0.308069 -0.0167751 -0.202291 0.00248895 -0.493503
mile -0.245138 0.387327 -0.0722367 0.391626 0.238568 0.00178579 0.0468191 0.11968 0.0893711 -0.00418232 0.0392404 0.044774 -0.368132 -0.051299 -0.0102126 0.13863 -0.19327 -0.106632 0.034685 0.0184515 0.0612999 -0.00666909 0.349614 0.224805 0.505493 -0.2577 -0.227579 0.110166 -0.192414 -0.174604 0.264673 0.209879 -0.358224 -0.0415047 -0.0513068 -0.28106 -0.154406 -0.161478 0.115462 0.118539 0.0585287 0.15035 -0.356896 -6.3218E-4 -0.121554 0.106768 0.22099 -0.197934 -0.107788 0.110509 0.373668 0.427717 -0.143946 0.0240307 0.277373 0.0336078 0.335641 0.146547 0.15597 0.360513 0.0207698 0.246564 -0.0724667 0.171987 0.15799 -0.112172 0.17251 -0.0874351 -0.111041 0.268154 -0.150505 0.210934 -0.17444 0.0993765 -0.116242 -0.603383 0.134403 0.0304534 -0.0739962 0.0227783 0.120059 0.0965363 0.191234 -0.301406 -0.0378725 -0.0533809 -0.0144592 0.12489 -0.0357884 0.0716757 -0.387397 0.369065 0.236946 -0.375109 0.0687287 0.165416 0.17408 0.0916669 -0.266246 -0.250983 0.0196799 0.0472062 0.11862 -0.326123 0.0476482 0.0168609 0.232144 0.160915 -0.33139 -0.133329 -0.264615 -0.448549 0.0853582 -0.126037 0.074092 -0.320844 -0.361177 0.159605 -0.0153563 0.0861941 0.115056 0.138994 -0.361681 0.298899 0.257249 0.274547 0.137296 0.310795 -0.148296 0.291251 0.473484 -0.0644886 -0.158855 -0.311892 -0.416072 0.0900656 -0.123921 0.00232782 0.142046 0.302154 0.164469 -0.0587097 -0.110679 0.316604 0.0239129 0.0739641 0.041736 0.200632 -0.107826 -0.119834 0.094114 -0.0837113 -0.0129437 0.294383 -0.18826 -0.135937 -0.172531 0.0592703 -0.196363 -0.025147 0.154041 -0.0485939 0.0740207 -0.217234 0.349979 -0.00139387 -0.260579 0.171824 -0.465777 -0.216835 0.394806 -0.151476 0.121087 0.0578022 -0.0944344 0.0624404 -0.454217 0.0799984 0.192056 0.00490895 0.454086 0.0406645 -0.175416 -0.250205 -0.502324 -0.142228 -0.0983389 0.254349 -0.387994 0.202757 0.185036 -0.117861 0.00745361 0.025312 0.0432891 0.18772 0.259919 -0.00599337 0.285861 0.0527035 0.146102 -0.100865 0.0905967 -0.0695055 -0.34693 0.0611755 -0.0951318 -0.203556 -0.264194 -0.36633 -0.0763975 -0.0531017 -0.120204 -0.0861091 0.500281 0.323016 -0.269349 -0.331105 0.191969 0.0307596 -0.139057 0.217689 -0.0015863 -0.0248819 0.137068 0.0883812 0.2 -0.333056 0.00802667 -0.164818 0.0935073 0.0546869 0.168519 0.130905 -0.064318 -0.101923 0.284434 -0.126505 0.0181514 -0.199594 0.25215 -0.0712349 0.0545355 -0.144233 0.0821851 0.551111 0.522801 0.189778 0.354682 0.115291 0.192282 -0.172323 0.170323 0.432167 -0.104824 0.207572 -0.528174 -0.106544 0.395172 0.112985 0.175303 -0.233047 -0.06685 -0.628842 0.209251 -0.0617526 0.0857885 -0.158584 0.256449 0.267586 -0.12134 0.171655 0.386344 -0.199845 -0.0893016 -0.403927 -0.0335688 -0.138359 0.22118 0.00354674 0.00886457 0.103346 -0.109497 -0.415636 0.27829 0.287705 0.0625021 -0.498394 -0.0945788 -0.14913 0.14599 -0.112697 0.189239 0.156206 -0.432357 -0.0971668 -0.137584 0.199458 -0.0484395 0.0598159 -0.05117 -0.213183 0.26898 -0.272774 -0.22755 -0.093625 -0.136534 -0.682016 -0.0944645 -0.136874 -0.300465 4.26941E-4 0.231348 -0.208587 -0.0447249 -0.0438947 0.108317 0.213652 0.319706 -0.345282 0.0696105 -0.00993007 -0.131795 -0.387029 0.175293 0.203975 -0.173474 -0.143454 -0.26455 0.143557 0.334232 0.0292455 -0.283973 0.0605426 -0.0274724 -0.135508 -0.190721 -0.516786 -0.0949635 0.0302839 -0.460344 -0.271921 0.288287 0.127288 0.0573232 0.179254 0.257288 0.274515 -0.164378 -0.253217 0.294055 0.101148 -0.256776 -0.206278 -0.0650713 -0.0184936 -0.250517 -0.0117155 0.0151101 0.216604 0.0367164 0.0392859 0.131284 -0.0488911 -0.505522 0.651398 -0.271492 0.0411403 -0.223303 -0.111384 -0.171999 -0.00202625 -0.187367 0.0808867 -0.319335 0.206946 -0.18107 -0.195994 0.11084 -0.17448 0.31563 0.138761 0.107202 -0.0877035 0.00700659 -0.26567 0.28617 0.0199331 0.324158 -0.315078 -0.125061 -0.0634478 0.0733361 -0.00313821 -0.0308189 -0.192914 0.0136488 0.40916 0.303848 0.142895 0.0598065 0.114552 -0.0425615 0.131309 0.243386 -0.184876 -0.196335 0.321828 0.0504976 0.112124 -0.0108853 0.133639 0.303429 0.140757 -0.0908244 -0.0814008 0.610502 -0.232366 -0.0709366 0.0311459 -0.262148 -0.0929865 -0.0602471 -0.132791 -0.3472 -0.38616 -0.0539736 0.232102 -0.0033083 -0.361285 0.0507362 -0.144908 -0.220384 0.0377675 0.0627533 -0.192912 -0.363325 0.342841 0.158611 -0.115117 0.176241 0.245637 0.019652 0.288648 0.213032 -0.268275 0.313023 -0.0159875 0.100965 -0.022974 -0.138732 -0.0840544 0.10314 -0.106456 -0.275446 0.0315935 0.0506092 -0.0278201 0.106978 -0.575112 0.00133968 0.218361 0.272014 0.0294193 0.423744 -0.641038 0.198083 0.266651 0.0408531 -0.0205561 0.0620407 -0.490788 0.0614452 0.163505 0.535672 0.00594885 -0.651926 -0.083495 0.174106 -0.300273 0.0760452 -0.196004 -0.305059 -0.0697502 0.294148 0.0226016 0.0580128 -0.0544161 0.043629 -0.282748 -0.321358 0.194062 -0.101284 -0.271602 0.185663 0.0367888 0.181805 -0.206327 -0.0238981 0.40766
airport 0.137669 -0.192279 -0.168627 -0.0200178 0.299136 0.130871 -0.0670148 0.0242132 0.336288 -0.716457 0.0974719 -0.03032 0.0814281 -0.184018 -0.0233926 0.052398 -0.140168 0.0555949 -0.216775 0.25484 0.124824 0.179362 0.526155 0.0620321 -0.409923 -0.187626 -0.16761 0.108345 0.0753156 0.304168 0.0384001 0.303664 -0.0790969 0.192123 -0.12656 -0.585509 -0.240898 0.0612255 0.112182 -0.0976378 0.0577763 0.00929513 -0.269466 -0.123443 -0.0115563 -0.12674 -0.152468 0.231642 0.219645 0.266175 0.122679 -0.0662059 0.253758 -0.120118 0.16971 -0.224481 -0.0769006 -0.431826 0.00966503 -0.190161 -0.0721261 -0.591591 0.506834 -0.23158 -0.24053 -0.0376682 -0.33009 0.00117878 0.191429 -0.125421 0.189813 0.0287426 -0.224894 0.289406 -0.522347 0.111771 -0.0196583 -0.0206545 0.242741 0.121575 -0.224112 -0.233662 -0.179276 -0.00930901 -0.0244786 -0.219854 -0.185461 -0.153385 -0.187495 -0.20782 -0.231736 0.152881 -0.755268 -0.138336 -0.190096 -0.0870911 -0.21696 0.0353011 0.0262155 -0.171498 -0.187159 -0.0867671 -0.00875685 -0.132657 -0.0359746 0.116655 0.0491538 0.3157 -0.286983 0.0397815 0.134332 0.300067 0.123124 0.0680124 0.0246007 -0.253322 -0.391829 0.126813 0.128446 -0.110881 -0.159874 -0.185796 -0.0183867 -0.366715 -0.0315752 0.0198922 -0.1292 -0.246914 0.0941152 0.0619984 0.0358091 0.0573798 -0.448337 -0.125245 0.15247 0.10826 -0.0840369 -0.136285 0.311442 0.0768777 0.411644 -0.0170475 0.00157867 -0.0478807 0.0332656 0.213087 0.0933121 -0.141163 -0.0370985 -0.166815 0.307152 0.0384724 0.005467 0.325997 -0.16497 0.311943 -0.103203 0.0261945 0.410072 -0.219401 -0.101651 0.0733808 -0.401973 -0.227318 0.109393 -0.0622112 0.244521 0.0304697 -0.3038 -0.292705 0.313856 -0.115114 -0.280077 0.342169 -0.338143 0.132924 0.0908461 -0.111707 -0.203732 -0.352706 0.047039 0.312179 -0.0240588 -0.451931 -0.0262452 -0.137473 0.0412335 -0.0505903 0.148918 0.0642823 -0.176945 -0.26703 -0.125173 0.0976003 -0.0789713 0.0950475 0.170116 0.118281 0.233496 0.404296 0.279736 0.112332 -0.104958 -0.00447254 0.0749021 -0.126333 -0.102484 -0.0963298 0.021681 -0.10786 -0.194428 -0.0742417 0.0290319 0.131131 -0.141539 -0.121864 -0.178991 -0.334854 0.292564 0.196295 0.128708 -0.019561 0.333429 -0.203602 -0.0268747 -0.267131 0.12403 -0.128509 0.089564 -0.151387 -0.250699 0.386194 0.259038 0.25011 0.117316 0.171144 0.0124444 -0.182261 -0.217196 -0.0300898 -0.295879 -0.210842 -0.239574 0.142245 0.105369 -0.265067 -0.218104 -0.271525 0.520827 -0.0239685 -0.362637 -0.218786 0.0871685 0.183616 -0.0834802 0.341443 0.00355668 0.00447389 0.0929145 0.00209324 0.0460606 -0.217757 -0.164248 -0.166671 0.217622 0.317439 0.159505 -0.00417577 0.397509 0.250656 0.0589614 -0.0274381 0.0356683 -0.0479445 -0.0702926 -0.126978 0.162084 0.242411 0.228886 -0.173008 -0.128476 0.171695 0.219427 0.153343 -0.130587 -0.00918443 0.0642821 -0.293166 -0.238743 0.0596304 0.0304696 -0.124426 -0.209128 0.225857 -0.277179 -0.630505 -0.133091 0.277844 0.0358188 0.236298 -0.12113 -0.0861736 -0.158799 0.0680922 -0.169168 -0.0720874 0.197577 -0.173795 0.0512997 -0.307231 -0.273224 -0.183909 0.0379875 -0.035831 -0.0674673 0.417155 -0.0219242 0.298906 0.278799 -0.354089 0.204378 -0.168057 0.396861 0.248634 0.209435 0.0754174 -0.0180975 0.126406 0.121529 -0.0683192 0.244399 0.158351 -0.0785045 0.0102625 -0.0567467 -0.35327 0.146454 0.0602273 0.0938187 -0.0371051 0.041266 -0.231879 -0.144489 -0.00272012 -0.156782 -0.319462 -0.115777 -0.0304407 0.390536 0.0796832 0.173048 0.410612 0.135775 0.165655 -0.298404 -0.337942 -0.202708 -0.233934 0.109137 0.109551 -0.332076 -0.0837596 -0.0706888 0.0294773 -0.100497 0.242929 -0.110378 -0.0336146 -0.171556 -0.358599 -0.192965 -0.0208197 0.120905 0.0402297 0.205155 0.09345 0.0215921 -0.0759219 0.0215771 -0.0897248 0.454274 0.245627 -0.172026 0.0581315 0.117312 0.0829172 0.215243 0.0602187 -0.0394775 0.0616606 -0.29401 -0.103408 0.130684 0.334648 1.83565E-4 0.26485 0.0312385 0.29506 0.043042 0.0567682 -0.242115 0.164553 0.0310973 0.0632957 0.189807 -0.00435472 0.175705 0.0843681 0.101863 -0.0958496 0.075867 0.0218479 0.293467 -0.0247372 -0.0175595 -0.144394 0.0606636 0.164415 0.1327 0.317929 0.126423 -0.0661566 -0.0100862 -0.0446675 -0.0625642 -0.0363427 0.106553 0.00344384 0.180757 0.22553 0.221327 -0.11996 -0.192798 -0.156655 -0.437858 -0.0867561 -0.196987 -0.0643294 0.0831774 0.0129074 -0.0899902 0.200219 -0.183192 0.0979816 0.0766465 -0.249845 -0.0454543 0.297048 -0.0292822 0.00323856 0.113221 0.173057 -0.0987474 0.024701 0.146012 0.00189569 -0.0886317 -0.119256 -0.0581647 -0.026006 0.0924976 -0.229333 -0.202548 -0.0966043 0.154509 0.00721785 0.163397 0.0817798 0.333241 -0.00980907 -0.103238 0.0221721 -0.0588608 0.176149 -0.0659934 0.0890552 -0.333095 -0.39327 0.315654 0.257018 0.148845 -0.150231 -0.0371009 0.204152 -0.030651 0.3242 -0.16822 -0.0240209 -9.96683E-5 -0.214906 -0.0084491 0.207774 -0.201753 0.0453586 0.286081 -0.0629207 0.202527 -0.259454 -0.0516508 0.378563
population 0.146722 0.00118451 -0.131472 -0.0458139 -0.179584 -0.15596 0.149492 -0.172527 0.0243153 -0.108974 -0.266687 0.120619 -0.361004 -0.1355 -0.196889 -0.00160723 -0.209162 0.205915 0.0874691 -0.0110997 0.0387665 -0.196462 0.039655 0.423656 0.0425975 -0.208076 0.194427 0.355248 0.233551 -0.146611 -0.283722 0.00197531 -0.144937 -0.41586 0.172608 0.011623 -0.438492 -0.0354865 -0.0126125 0.0223482 -0.168537 -0.189886 -0.0547051 0.28485 -0.181048 -0.199686 -0.0468635 -0.163188 0.0584779 -0.273135 0.0217983 -0.0259538 -0.201862 -0.442278 0.0693285 -0.128319 0.0652706 -0.24126 0.277533 3.17793E-4 0.0126036 0.236644 -0.0889061 -0.00660634 0.362258 0.16985 -0.183513 -0.034079 0.251606 0.0834881 0.154663 0.0113916 -0.405261 -0.104971 -0.21586 -0.0323652 0.185127 0.128199 -0.0772017 -0.14633 0.206077 0.0116909 -0.176736 0.0229788 -0.0470532 -0.0956637 -0.0353199 0.328608 0.376341 -0.0410974 -0.0650594 -0.0300503 -0.306145 -0.0591716 -0.090621 0.293419 0.0745525 0.455494 -0.229258 -0.0957217 -0.0860949 0.369097 0.0665541 0.0184058 0.0624246 -0.212505 -0.113851 -0.0267647 0.117811 -0.00734123 0.146797 -0.265006 0.0434571 -0.21829 0.0593821 -0.0844933 -0.399031 -0.0346221 -0.358385 -0.102693 0.133034 0.0833493 0.0154001 -0.411027 -0.249161 0.0611553 0.0770162 -0.272319 0.192681 -0.165623 0.292446 -0.234848 -0.139551 0.113513 0.0987183 -0.221199 -0.0612288 -0.184551 -0.248711 0.185759 0.406858 -0.132944 0.10371 0.0521 -0.261717 0.0993062 0.247763 0.198453 -0.303533 -0.026339 0.035778 0.0494265 -0.235782 0.227522 -0.0784392 0.0700725 -0.154925 -0.401461 0.0491287 0.0206759 -0.159862 0.158979 -0.103895 -0.073871 0.0896781 -0.162209 -0.179637 0.283791 -0.107835 -0.0792772 0.171267 -0.121593 -0.22758 -0.155742 0.146652 0.164846 -0.0730623 -0.122706 0.243861 0.0293344 0.214327 0.0677146 -0.0411148 0.193933 -0.0760155 -0.127459 0.106464 0.21536 -0.410425 -0.107727 0.33888 -0.326165 -0.242904 0.0893444 -0.370671 0.0805436 0.488751 0.215816 0.111572 -0.00887937 -0.00782256 -0.0275899 0.208843 -0.107972 -0.225681 -0.209664 -0.0753422 -0.137963 0.035024 -0.146174 0.0839667 -0.271992 0.383217 0.253516 0.110094 0.153011 0.129453 -0.455043 0.420533 0.0103918 0.111336 -0.232305 -0.127657 0.0687441 0.280242 0.207556 -0.210301 -0.194996 -0.372072 -0.151223 -0.0341279 0.0482852 0.137613 -0.100009 -0.0603822 -0.251833 0.0892351 -0.209263 0.128992 -0.0433185 0.145715 0.0303927 0.582983 0.0109129 -0.0738019 -0.162611 -0.0893975 -0.172101 -0.0957204 0.15084 -0.0342047 -0.148474 0.113289 0.120501 0.193014 0.208835 -0.36082 0.0675006 -0.234315 -0.148233 0.251519 -0.00636805 -0.126279 -0.198589 0.0663196 -0.125664 0.092996 -0.206849 0.321407 0.0494707 -0.0164664 -0.0613821 0.197508 0.184714 -0.713384 -0.200753 0.0406928 0.0606489 0.0623751 -0.0206706 -0.367771 0.321755 -0.231453 0.151475 -0.227662 -0.459738 -0.08175 -0.255672 0.128531 0.130441 -0.0684173 0.279362 -0.173974 0.15776 -0.316831 -0.0919679 -0.265404 0.287919 -0.284987 -0.121647 0.0981603 -7.32696E-4 0.140428 -0.232238 -0.363506 0.22791 0.256213 -0.180659 -0.154133 0.27151 0.0903273 0.167309 -0.0968631 -0.482393 0.0617076 0.219098 -0.0361253 -0.2098 -0.0167371 0.0292105 0.114255 0.0972016 0.0226727 -0.275525 0.202452 0.137624 0.348231 0.0557968 -0.231692 0.0149782 -0.0866513 0.0592015 -0.0101027 -0.228626 0.478866 0.297955 0.0515547 0.311126 -0.20906 0.135307 -0.118968 -0.0661035 0.0203242 -0.106456 -0.126803 -0.371427 -0.158091 -0.279527 0.123246 -0.159978 0.215908 -0.240751 -0.242549 -0.22501 -0.212942 -0.0449345 -0.272539 -0.0329588 0.337258 0.403614 -0.123294 0.0569196 -0.207565 -0.120798 -0.178887 0.352539 -0.138797 -0.178381 0.191875 -0.0343958 -0.664533 -0.0558903 0.312189 -0.24696 0.11558 0.353536 -0.307355 -0.372299 0.0215853 -0.142113 0.322339 0.0237437 -0.128677 0.104536 0.129922 -0.0725604 -0.16075 0.14021 0.192363 -0.0537543 -0.219776 0.279154 -0.526047 -0.0899258 -0.0215145 -0.325937 -0.0904231 0.153273 -0.083506 -0.0851466 -0.258352 0.0317943 0.0109788 -0.274856 0.149312 0.149606 0.321761 -0.189425 -0.0876219 -0.139854 0.00581837 -0.257572 0.317746 -0.00194126 -0.168788 0.00878723 0.0498887 0.0569942 0.372381 0.372832 -0.185494 0.283338 0.181467 -0.105736 0.121445 0.321336 0.185556 0.0882194 -0.279084 -0.19952 0.028235 0.218655 -0.126428 -0.154807 -0.318637 -0.547574 -0.186333 0.0277881 0.0570758 -0.0168194 0.00193464 0.0367015 0.149988 0.0981267 -0.044644 -0.0515544 0.031954 -0.22259 0.107485 0.168666 0.552626 0.139315 0.0598089 0.32392 0.012537 -0.190467 0.240655 -0.0704025 -0.238493 0.176316 -0.146569 0.117715 0.20664 -0.687292 0.060945 -0.381246 -0.167139 -0.0314462 0.00742154 -0.509857 0.316869 -0.43314 -0.384654 -0.338653 -0.344894 -0.145187 -0.502908 -0.293898 -0.111069 -0.409766 0.17007 -0.0413699 -0.229842 -0.0943942 -0.0209433 -0.056254 0.256661 0.0913303 0.0351026 0.0936195 -0.163794 -0.0339998 -0.147878 0.0811849 -0.367394 -0.0871099 0.0222294 0.0875434 -0.419215 0.325819
planning -0.0876809 0.193279 -0.251916 0.208041 0.0668489 0.371703 -0.0329098 -0.242909 0.00951794 -0.221183 0.167657 0.112525 -0.0516164 -0.134255 0.0286557 -0.302984 0.252559 -0.0804443 0.0560237 0.197861 -0.448077 0.0151448 0.273099 0.182936 0.0257376 -0.199701 -0.134357 -0.164748 -0.264954 0.0680428 -0.152663 0.351584 -0.0167769 -0.0106122 0.0889163 -0.141725 -0.0294848 0.147738 0.00683273 0.224433 0.120558 0.311864 -0.137811 -0.47827 -0.13416 0.159589 -0.0971583 0.291896 0.234432 0.0992284 0.0913683 -0.307701 0.17059 0.245108 0.115675 -0.2806 0.375606 -0.150401 0.0273357 -0.188013 -0.146624 -0.49637 0.200909 0.090821 -0.00698284 6.92068E-4 -0.28718 0.0587231 0.232255 5.65478E-4 -0.369649 -0.201248 0.171459 -0.17791 0.0329942 -0.173108 -0.0492984 -0.0343643 -0.0770303 -0.182436 0.0142123 0.217464 -0.278821 0.0655541 -0.044378 -0.0774969 -0.272899 0.00410713 0.0292244 0.026496 -0.186903 -0.170435 -0.144402 -0.161297 -0.0372144 -0.235003 0.0581122 0.157862 0.260443 -0.176986 0.191086 0.27204 0.219661 -0.172066 -0.10232 0.0150562 0.00476899 -0.203794 0.0829483 -0.191179 -0.0193953 0.145568 0.016826 -0.265053 0.183333 -0.00894283 0.0178031 -0.0212283 -0.0428136 0.0376293 -0.0759156 0.0621949 -0.180707 0.0653556 -0.213208 -0.173234 -0.103815 -0.0823401 -0.324075 0.15121 0.114046 0.181442 0.117292 -0.264248 -0.0889018 0.00330395 -0.391717 0.0916516 -0.248095 -0.343798 -0.0925754 0.125917 -0.366197 -0.221552 0.130196 0.161663 0.277322 -0.0543219 -0.0106355 -0.273657 -0.208003 0.108889 0.0918061 0.262447 -0.154832 0.346207 -0.218281 -0.119915 -0.0201075 0.0325245 -0.280511 0.171174 -0.0967255 -0.349649 0.0401623 0.0374279 0.106158 0.0205874 0.0180872 0.0550136 0.207792 -0.240119 -0.0107087 -0.0492836 0.0304194 0.0902284 0.137937 0.150695 -0.116808 -0.242874 0.154004 -0.159714 -0.0939816 0.0275424 0.395401 -0.0704214 0.0172565 0.106478 0.010301 0.161992 0.241241 0.180497 -0.0278143 -0.0683026 0.161557 0.0963921 0.190221 -0.00405594 0.0464743 0.114063 0.362536 -0.1103 -0.224423 0.161237 -0.00628237 0.0203913 0.157759 0.111731 -0.318061 -0.05423 -0.0958657 0.057535 -0.213667 0.123766 -0.160102 0.132583 0.132015 -0.151423 0.284306 -0.105684 0.165183 0.081114 0.0213395 -0.149349 -0.0421144 -0.244783 0.0937402 0.0894049 0.1996 0.42423 -0.117606 -0.0456529 -0.198326 0.191208 -0.152967 0.0335307 0.11177 0.0700826 0.145452 0.140836 0.0340677 -0.238379 -0.416754 0.171642 0.0898139 0.0321334 -0.0850528 0.0754767 0.125894 0.186358 -0.00194033 -0.11215 0.238319 0.0475244 0.1578 0.134402 -0.00883107 0.00682898 -0.178346 0.0478834 -0.136017 -0.184294 -0.00298576 0.216706 0.228729 0.143298 0.00428665 0.113454 -0.208741 -0.121805 -0.0809144 0.181069 -0.209831 0.197484 0.0585716 -0.181258 -0.196669 -0.143135 0.201623 0.141494 -0.154279 -0.0258994 0.179794 0.159537 -0.157235 0.0100821 -0.127369 -0.0569505 0.12206 0.0084093 -0.155272 -0.027442 -0.189872 0.259122 -0.0535133 0.108097 -0.251284 -0.109036 -0.124691 0.128488 0.0568363 0.0984874 -0.337852 -0.182216 0.182536 0.0504583 -0.096486 -0.240066 0.316075 0.173021 -0.295519 0.223635 -0.02969 0.110137 0.143662 0.249324 -0.293131 -0.132002 0.0910881 0.0670547 -0.131938 -0.12962 -0.00336436 -0.0763179 -0.0557451 -0.0678431 0.0616835 -0.100365 0.16179 -0.135869 0.132853 0.320215 -0.207987 0.0322846 0.289091 0.126054 -0.117018 -0.176326 0.0517464 -0.134346 -0.237224 -0.273859 0.134788 0.187299 -0.08496 0.244498 0.0884324 -0.2215 0.318279 -0.131793 -0.0198086 -0.213532 -0.125621 0.115405 -0.288225 0.128521 -0.157009 -0.0414437 0.135869 0.0539231 0.224726 0.0384733 -0.0779233 -0.173756 -0.0617934 0.117124 -0.111985 -0.0821385 0.0860835 -0.0648681 0.19177 0.29344 1.39728E-4 -0.146541 -0.239587 0.254674 0.0596618 0.315312 -0.0700372 -0.0209313 -0.248046 0.247802 0.146044 0.246761 -0.175432 0.103779 0.07069 -0.187668 -0.060667 -0.0803029 -0.207951 -0.243143 -0.296824 -0.0720753 -0.0648862 0.0826363 -0.0307296 0.364374 -0.0213085 0.296324 -0.0682829 -0.223608 -0.143313 -0.290861 -0.180062 -0.234157 -0.0522467 -0.0359347 -0.453735 -0.0497229 0.373754 0.38666 0.0968444 -0.114608 -0.108859 -0.105847 0.137208 0.0514781 -0.00991319 -0.0941596 0.298007 0.0512167 -0.238511 -0.113307 -0.153867 -0.0260771 0.379001 0.108059 -0.239622 0.10747 -0.0117427 -0.136346 -0.020828 0.143802 -0.0867593 0.0281924 0.167924 -0.0288366 -0.0134027 -0.149977 -0.0272164 -0.122741 0.0532496 -0.00351967 0.123243 0.0422986 -0.0770475 -0.144704 -0.205505 -0.039547 0.218851 0.038133 0.284468 -0.0920284 0.0344729 -0.174362 0.266812 0.0715208 -0.507607 -0.0825128 0.0706548 -0.0114806 0.216412 -0.0302299 0.158263 0.0597759 0.349283 -0.087235 -0.250367 0.194076 0.0535989 -0.0953623 0.055973 -0.125133 -0.37344 -0.0313449 0.0259512 -0.116677 0.209443 0.133799 0.229256 0.182667 -0.0133967 -0.0662427 -0.02638 0.298355 -0.00343501 -0.0114739 -0.272455 0.028411 0.150213 0.246672 -0.153556 -0.170066 0.151854 0.217913 0.0844213 -0.0674333 -0.0297616 0.236125
canyon 0.354344 0.0541902 -0.27409 0.660056 -0.116047 -0.0742431 -0.0976939 0.258094 0.0263227 -0.0558967 0.216213 0.110156 -0.186717 0.242378 0.200047 0.0670623 0.117936 -0.125626 -0.45516 0.0602501 -0.034935 -0.0427866 0.559012 0.498163 0.240507 -0.348949 -0.102858 0.162311 -0.0278121 -0.576968 -0.208375 0.227485 -0.428979 -0.154762 0.34743 0.130742 0.407033 0.165845 -0.0372716 -0.00919148 0.169935 0.257976 -0.00696327 0.0628071 0.0382135 -0.0741304 0.152361 -0.0717089 -0.404852 -0.127536 -0.184187 0.0321868 -0.251872 -0.147943 0.242769 -0.127508 0.0240438 -0.131795 -0.115973 0.295691 -0.189752 -1.51127E-4 -0.187901 -0.159313 -0.142863 -0.281401 0.289835 -0.0630942 0.189458 0.128382 0.122764 -0.0401603 -0.0190111 -0.115395 -0.173158 -0.559323 -0.0451438 0.15096 0.408029 0.381324 0.15239 0.137648 -0.285554 -0.257958 0.354664 0.0212211 -0.0334897 -0.4267 -0.0447054 0.174336 -0.224229 -0.224599 -0.20213 -0.144742 0.054977 0.0712651 0.0304509 0.255018 0.0983461 0.319803 -0.0413918 0.16312 -0.0623897 0.130264 0.101118 -0.0476311 -0.057167 0.206071 -0.100933 0.363726 -0.309403 -0.266013 -0.108713 -0.0758217 0.345603 -0.380687 -0.13604 0.168735 0.131903 0.182103 -0.080181 0.0653505 0.0964566 0.240272 -0.117218 -0.291369 0.107353 -0.126988 0.137501 0.212881 0.257122 0.146711 0.263541 -0.104992 0.188303 -0.067943 0.105321 0.43104 0.0497356 0.134957 0.572887 -0.0265445 0.0528653 0.0532431 0.290438 -0.0968653 0.018599 0.0284916 0.226834 -0.0929931 0.0187635 -0.235343 0.209373 0.309533 0.207699 -0.0422999 0.112593 -0.0192482 -0.00653948 0.246616 -0.148589 0.329145 0.187791 0.0949707 -0.241428 -0.0938581 -0.795694 0.257463 0.180641 0.145838 -0.0582965 -0.481154 -0.152231 -0.142814 -0.170308 -0.0945486 -0.0150835 0.023239 0.270769 -0.334642 0.175034 -0.00271378 0.331917 -0.0410144 -0.124877 -0.268687 0.100811 0.103807 0.00187821 -0.0498484 -0.00664963 -0.170361 0.0401081 0.408006 0.171423 0.452591 0.066296 -0.0869933 -0.207588 0.346264 -0.141745 0.0206581 -0.03896 0.483033 -0.122937 0.313229 -0.020692 0.147524 0.184539 -0.118402 0.0118132 -0.138595 -0.0577627 -0.0507054 0.539422 -0.138436 -0.436292 0.137183 -0.00723149 0.293108 -0.236445 0.217185 -0.0568113 0.279188 0.406725 -0.2701 0.510399 -0.116212 -0.0913495 -0.345293 -0.18029 -0.0857906 0.323667 0.0239019 -0.0927434 0.183107 0.163712 -0.262472 -0.0656301 -0.0109039 0.0657604 0.135601 -0.177162 -0.172057 0.0115256 0.107291 -0.271361 0.0873034 0.247635 0.0811296 0.0863562 -0.316647 -0.23964 0.175926 -0.332771 0.065413 -0.390169 0.0475156 -0.0806561 -0.0178113 0.0729274 0.258358 -0.0680339 0.0961734 0.234858 -0.328851 0.127621 -0.264468 0.523282 0.161424 -0.314602 0.024029 0.185275 0.217795 -0.213906 -0.00152582 0.0953849 -0.109507 -0.00337103 0.274675 -0.114883 0.359801 -7.10891E-4 0.0125454 -0.340623 -0.211541 -0.145666 -0.0311911 -0.177139 -0.155013 0.0180557 -0.156852 0.110396 0.0955205 -0.213107 -0.214323 -0.236253 0.244537 0.127019 0.193019 -0.0225295 -0.0664986 -0.0504268 -0.0410916 0.204239 0.135241 0.355893 -0.0977656 0.337499 -0.100884 -0.378521 -0.0971106 0.0631941 -0.195461 -0.257879 -0.0923712 -0.270803 0.546738 -0.0929871 -0.231816 0.297719 -0.301187 0.0128652 0.00366782 -0.303216 0.0519418 -0.105381 0.149 0.265136 -0.211867 0.169796 0.0367292 0.104049 -0.225434 -0.0612037 -0.32903 -0.0530195 -0.0357642 -0.0264123 -0.0810073 -0.165588 -0.250862 0.00123282 0.181205 -0.21773 -0.168216 0.397797 -0.110957 0.0741954 0.00747151 0.282406 -0.080718 0.0190615 -0.0120346 0.049309 -0.134408 -0.372835 -0.0647241 -0.217158 0.120312 -0.206021 0.0036384 0.245166 0.312787 -0.481969 0.296012 -0.0142561 -0.213039 -0.0127172 -0.0862993 0.00836725 -0.0213226 -0.305581 -0.204608 -0.0592222 -0.137847 -0.366091 -0.343766 -0.0835339 -0.10789 0.0790575 -0.227942 -0.18227 0.0536233 0.313516 -0.0700464 0.671021 0.133039 0.173954 -0.371079 -0.0383279 0.37169 -0.101329 0.120718 0.263834 -0.112517 -0.165989 0.191035 -0.0184084 -0.188055 0.0730111 -0.261492 0.225483 0.223135 -0.302054 0.199212 -0.351227 -0.0480997 0.24081 -0.107548 0.337016 -0.485885 0.330633 0.154789 0.228132 0.0899086 0.415634 -0.164207 -0.113232 0.020897 0.0910909 0.411255 0.0133823 -0.00803227 0.159088 -0.221189 -0.0195251 0.456828 -0.0961072 -0.32907 -0.0432829 0.14807 -0.304948 0.0356939 -0.112236 0.121032 -0.400078 0.227881 0.357086 0.180131 0.0540703 -0.0901148 0.153071 0.318259 -0.0589573 -0.00353798 0.0424413 0.00721071 -0.498734 0.29901 0.140323 0.375071 0.0820191 0.0994624 0.22226 -0.0807871 -0.181908 0.0841597 -0.258722 -0.208617 0.228282 0.123003 -0.0592269 -0.488176 0.244142 0.0775694 0.295671 0.0662635 0.0809804 0.222091 -0.224936 -0.261617 -0.154796 0.0195305 0.451398 0.0348673 -0.00660867 0.108647 -0.0656426 -0.241272 0.326183 -0.0495748 0.245367 -0.340821 -0.00522963 0.142441 0.107482 0.249087 0.121403 -0.131155 -0.407196 0.278941 -0.0639464 -0.0216656 0.249557 -0.124278 0.138848 0.295888 -1.48206E-4 0.479646
delay 0.0853898 -0.0270883 -0.229453 -0.0160103 0.22189 -0.0108544 -0.0374249 -0.0152844 0.239696 -0.110621 -0.0187004 -0.157796 -0.0934479 -0.133823 0.28402 -0.104343 0.248644 0.0945465 -0.125217 0.0312166 0.00627555 -0.207247 0.624649 -0.0960411 -0.250704 0.063455 -0.237657 -0.141311 0.0945132 -0.330114 -0.0362623 -0.0526685 -0.0143422 0.0785407 0.00157945 -0.163552 0.104872 0.19352 0.0702087 -0.249086 0.0137133 0.120583 -0.200344 -0.245281 -0.288075 -0.00818047 -0.242068 0.269866 0.0427635 -0.10433 0.0678501 -0.470668 0.420171 -0.138169 0.190927 0.157184 0.267933 -0.183894 -0.199349 0.0755788 6.44023E-4 -0.231458 -0.186358 -0.0546607 -0.120659 0.0116619 -0.148581 0.26994 0.408122 0.354872 -0.375266 0.341298 0.227993 -0.262167 0.0762888 -0.103199 -0.286311 0.114314 -0.108389 0.215939 -0.217249 -0.366775 0.29325 0.017826 0.0228176 -0.211951 0.0901007 -0.276354 -0.124745 0.0941605 -0.181996 0.0649493 -0.0326476 0.0606899 0.00807566 -0.414636 0.0607153 0.125615 0.0948914 0.149684 0.0763214 0.264391 0.372751 -0.250235 0.0786031 -0.0839939 -0.154712 0.0877764 0.153663 0.214083 -0.200507 0.134865 0.163913 -0.0109694 -0.267552 -0.191488 -0.119558 -0.0431852 0.00320708 -0.0583774 -0.117408 -0.152609 0.214067 -0.0496372 -0.356524 0.244726 -0.31703 -0.0447283 0.0739642 -0.0642067 0.562995 0.0546382 0.196578 -0.405971 0.296454 0.0865802 -0.171099 -0.119074 -0.208804 0.00463446 0.189855 0.249179 0.0714154 -0.022408 0.0693969 -0.0183947 0.181871 0.114338 -0.328604 -0.0982545 0.360335 -0.0798445 0.0816158 -0.280982 0.0705684 0.163582 0.179148 0.226383 -0.0226349 -0.130009 0.0319955 0.0539785 -0.132232 -0.24402 -0.0669231 -0.0571634 0.14269 -0.151766 -0.0027432 -0.00564545 -0.0938707 0.236324 0.20351 -0.220625 -0.00655643 -0.0458143 0.376293 -0.12428 -0.345553 -0.189865 0.176332 0.0976109 -0.0417783 -0.240783 -0.313749 -0.183977 0.125759 0.132199 -0.120752 -0.0781329 -0.04645 0.0552913 -0.200043 -0.343027 -0.124102 -0.11587 0.030681 -0.0795622 0.078208 0.255241 0.0629474 0.0142386 0.170998 -0.0781279 -0.15682 -0.298464 0.195642 -0.0910583 0.187187 0.0280688 -0.349387 0.199617 -0.0645517 -0.117006 -0.053261 -0.0983891 0.127193 -0.107578 0.25213 -0.338964 -0.0545053 -0.222158 -0.0778594 -0.0771119 -0.128035 -0.00875296 0.11463 0.0718104 0.203024 0.171519 -0.100019 -0.0260833 -0.236667 0.253824 0.266249 0.00854407 0.0662597 0.0081983 -0.102066 0.0541979 -0.0391163 0.124688 -0.0865739 -0.207881 0.0474914 0.0693071 0.0956226 0.250575 0.285313 0.0240144 -0.0664928 -0.00917957 -0.0576408 -0.299582 0.0581243 -0.0876832 0.187736 -0.0086307 -0.0873711 0.0741981 -0.0908184 0.0219782 0.121513 0.108928 0.141402 0.208448 -0.171328 0.0231905 0.140381 0.0912385 0.301486 -0.216288 -0.141945 -0.0437747 -0.0149344 0.565853 -0.225143 -0.157834 0.0609994 -0.221767 -0.0282775 0.0526215 0.141679 0.0375856 0.0802472 0.065462 -0.276962 -0.203892 -0.0484721 -0.028922 0.176813 0.302279 -0.0462869 0.0113054 -0.0509118 -0.046048 0.182192 -0.0810345 -0.266965 0.00536669 0.00627733 0.0531758 -0.119652 0.165528 0.0494828 0.0268594 0.0369125 -0.218134 0.0630743 0.266757 -0.0314459 -0.147832 0.0869122 0.195161 0.18429 0.127954 8.50719E-4 0.297783 0.206573 -0.0371314 -0.082134 -0.0303683 0.134398 -0.0157212 0.101867 -0.0433716 0.202602 0.151405 0.186761 0.0881919 -0.0210408 0.48345 0.10722 -0.07878 -0.255189 0.353593 0.0747599 -0.512113 0.0594145 0.208493 -0.233676 -0.0250928 0.131726 -0.243976 -0.161985 0.256424 -0.192207 -0.16305 -0.178006 -0.330975 0.157362 -0.344228 0.22021 0.362123 -0.176007 -0.381593 0.0338695 0.230539 0.518424 0.0975302 -0.0289421 -0.292753 -0.190422 -0.234557 -0.108678 0.487412 0.0387781 -0.170771 -0.0196972 -0.245599 -0.168494 0.12015 0.113971 -0.0188106 0.103522 -0.209536 0.245051 -0.260647 -0.090694 0.0791425 0.0404474 -0.099312 -0.113123 0.146237 0.0667056 -0.456189 0.24975 0.0624159 -0.0608672 -0.0245328 -0.23129 -0.198886 -0.0390146 -0.182173 0.00713089 0.0883196 -0.0266237 -0.0137596 0.490002 0.127676 0.15987 -0.0966045 0.422552 -0.132686 0.484896 0.100652 -0.16697 0.335034 -0.314425 -0.143999 -0.0203093 -0.0960833 0.0249008 -0.172292 -0.130888 0.21315 0.0735448 -0.00226427 0.137198 -0.0112495 0.165197 0.139429 0.0513057 -0.143161 -0.191489 -0.153545 0.121429 0.283672 -0.263471 0.0237393 0.284819 -0.232989 0.0716042 0.100996 -0.0142449 -0.044116 0.0280516 0.246925 0.463197 0.069757 0.245887 -0.236332 -0.0886155 -0.266772 -0.0526255 0.0235642 0.0255786 0.120144 -0.0709928 0.0804314 -0.0281783 0.148953 0.223355 0.121626 0.173983 -0.470802 -0.0818809 -0.122035 -0.310454 -0.0427258 -0.162781 0.337369 0.00813826 -0.0755233 0.196811 -0.100598 -0.123163 -0.111308 -0.256686 -0.184513 -0.44551 0.0409064 -0.0379793 -0.352847 -0.109641 0.0960722 0.299476 -0.372198 0.0223941 0.435755 -0.175812 0.180304 -0.0214979 -0.0308619 -0.356511 0.0979657 0.0935518 0.00703837 -0.261097 0.0212377 -0.0976223 0.0076603 0.212012 -0.00591652 0.205443 -0.461301 0.0789337 -0.2173 0.257339 0.271837
size 0.502156 0.0169889 -0.212247 0.256909 0.24593 0.141206 0.00953883 0.408753 0.221695 -0.00860564 -0.0822477 0.0753946 -0.568741 0.174522 -0.0283944 0.213252 0.116058 0.40514 -0.322348 0.0945313 -0.243639 -0.265559 0.437255 -0.0532724 -0.0370991 -0.202035 0.0629922 -0.173425 -0.187719 -0.190589 -0.117885 0.163926 -0.183241 0.0536715 -0.226935 -0.265323 -0.10767 -0.243373 0.150984 -0.42097 -0.172297 -0.0273551 -0.37236 0.295043 -0.354437 -0.214097 -0.204809 -0.0707644 -0.145405 0.282106 0.239152 -0.194225 -0.0794036 -0.264355 0.41917 -0.0741681 0.180875 -0.264624 0.217014 -0.25767 -0.0957118 0.0467371 -0.041434 0.251215 0.0317334 -0.185025 0.0129027 0.577306 0.262285 0.119742 -0.119247 0.0508506 -0.0298156 0.241326 -0.107313 0.061973 0.0635315 -0.253296 0.104249 0.166059 -0.00688078 -0.0401593 -0.165625 -0.00441427 0.0591 0.142369 -0.154262 0.21486 -0.0293662 0.0912345 -0.145156 -0.194958 -0.200659 -0.0710813 0.235392 -0.281907 0.101876 -0.0994823 -0.0100538 0.436792 -0.0282371 0.198761 0.0556536 -0.396507 -0.197642 0.0794713 -0.332144 -0.0709231 0.276925 -0.0141985 -0.0240813 0.0491476 0.204672 -0.101551 0.0442629 -0.175051 -0.128878 -0.0588355 -0.417904 -0.232547 0.143422 0.373597 -0.257135 -0.0976453 -0.0890084 0.0738632 -0.221905 0.0877877 -0.298807 0.122671 -0.017183 0.0526641 -0.100268 -0.299915 -0.0942151 -0.00751432 0.0509334 -0.144572 -0.268045 0.307538 -0.0271526 -0.265357 0.0296493 -0.0542669 -0.0774043 0.0947806 -0.00730962 0.199368 0.0368164 -0.0675097 0.0181867 -0.296505 -0.489029 0.163876 0.328999 0.02159 0.0656546 -0.159583 -0.0677496 0.278046 0.210979 -0.0408173 -0.110058 -0.104294 0.215172 0.0202707 -0.0845207 0.0768059 0.143256 -0.0208968 -0.0632456 -0.2658 -0.110122 -0.0486822 0.249049 0.0911079 -0.00471892 -0.213779 0.17105 0.154494 0.20655 0.163899 -0.116629 0.118522 0.0794287 -0.0548565 0.32959 0.126323 -0.0652941 0.0500754 0.370327 0.277914 0.140899 -0.302733 -0.375356 0.178163 -0.114687 0.115005 0.215624 -0.260712 0.0737867 0.178803 0.105163 -0.16959 -0.428073 0.0406279 -0.11767 0.261188 -0.323071 -0.168763 0.0900232 -0.122779 -0.0345791 0.164099 -0.0405166 -0.0344224 0.0817069 -0.311496 0.20581 -0.113815 0.122809 0.144944 0.026607 0.304899 0.163807 0.148813 -0.193735 -0.0708015 -0.0372756 -0.013744 -0.228671 0.284973 0.145789 -0.247165 0.0143048 0.0997489 -0.139537 -0.110208 0.125546 0.26958 0.156498 0.0377327 0.184566 0.200666 0.259746 0.143216 -0.0605463 0.0621159 -0.144915 -0.0158399 -0.025121 -0.121994 -0.0847902 0.034954 0.255912 -0.076235 -0.416772 -0.0956667 0.160944 -0.0378241 0.344391 -0.247878 0.103842 0.0346024 0.477311 0.0885984 0.154352 -0.273584 0.144576 0.0110614 -0.0980904 -0.0595025 0.118928 -0.153134 -0.377534 -0.114243 -0.041717 0.0846201 0.468546 0.00425144 -0.0352714 0.0904689 0.0569704 0.161387 0.284321 0.0366586 -0.139879 0.135608 0.101458 -1.19571E-4 -0.075647 0.142372 -0.0805131 0.16872 -0.297885 -0.403067 -0.00225634 0.356503 0.0199721 0.0924637 0.0321615 -0.262724 0.316227 -0.0337716 -0.445218 0.242619 0.10029 -0.200019 -0.368321 0.430833 0.0393122 0.261182 0.158558 0.438004 0.271238 -0.00840571 -0.110561 0.0796995 -0.0765512 -0.150143 -0.019734 0.139898 -0.287412 -0.233799 -0.045991 -0.403305 0.15306 0.0881603 0.00986294 -0.174991 0.25719 0.162694 -0.179028 0.101891 -0.065391 -0.25414 0.0998389 -0.037133 -0.25656 0.0813372 -0.307663 0.0480627 -0.0341807 0.170234 0.0987044 -0.346657 -0.0610791 -0.294984 -0.10364 0.329807 -0.147341 -0.226898 -0.13538 0.0732546 -0.316441 0.104444 0.0249502 -0.122032 0.0425977 0.1854 -0.307468 0.248143 0.205282 -0.0314383 -0.134219 0.0637182 0.153424 -0.18277 -0.0974722 -0.118923 -0.344021 -0.287411 -0.0124627 -0.05039 -0.190565 0.48844 0.27912 -0.0735631 0.172137 0.0254549 0.108516 -0.0406325 0.244203 0.195828 0.20472 -0.106874 -0.0502633 0.149277 0.28541 -0.132413 0.0191514 0.205637 -0.334238 0.130788 -0.0091603 -0.284459 -0.238279 -0.0564695 0.422333 0.257184 0.140902 0.0996365 0.157495 0.0844667 -0.0123181 -0.258854 -0.141054 -0.17586 -0.4141 0.115796 -0.321059 0.0574761 -0.244547 0.0322193 -0.0424971 -0.0409672 -0.0917444 0.0536562 -0.0511592 0.183908 -0.124608 0.0428615 -0.302176 -0.296206 -0.0330555 0.0593125 -0.20768 0.378586 -0.201218 0.0526321 0.321297 0.284432 -0.0942313 -0.129635 -0.211363 -0.183782 0.0634993 -0.0117764 0.126159 0.01825 0.136098 0.256307 0.247621 0.0571947 -0.0572785 0.196356 -0.342606 -0.111304 0.189883 0.116104 0.118428 0.153031 0.0560732 0.187164 0.140503 -0.0207003 -0.34137 -0.129186 -0.275787 0.169703 -0.0529818 0.0394106 -0.184136 -0.230231 0.0575842 -0.155769 0.053359 -0.311757 -0.0819566 -0.0667968 0.0162391 -0.0446888 0.0686851 0.0533942 0.0042261 0.0380083 0.239848 0.019243 -0.141179 0.027622 0.0375172 0.0376986 -0.215251 0.0958332 -0.473462 -0.224506 -0.0215226 0.0109691 0.161269 -0.29046 0.0072475 0.291989 0.0831531 -0.0845305 -0.289746 -0.148108 0.119656 -0.0152176 0.196636 -0.00485036
peace -0.38565 0.375889 0.0248825 -0.364512 0.23355 -0.304682 -0.240239 -0.0476748 -0.152754 -0.171644 -0.304118 0.0697854 0.298522 -0.353049 0.051699 0.218046 0.363229 -0.0835917 -0.193502 0.498964 -0.445215 -0.235989 0.344877 -0.22363 0.0945628 0.208174 -0.140605 0.316514 -0.0212501 -0.198221 -0.216712 0.377985 -0.206829 -0.434851 0.0926569 0.33851 -0.0756371 0.141304 -0.184687 0.154088 -0.311197 -0.149421 -0.14994 0.0271032 0.0737457 -0.0601238 -0.296858 0.0506153 -0.0113422 0.116838 0.258266 -0.475629 0.442647 -0.132182 0.244792 0.237101 0.0253724 0.03839 -0.287845 -0.263525 -0.0698616 -0.24829 -0.397501 -0.0965008 -0.249604 -0.50661 -0.0522384 0.141699 0.186172 0.0723531 -0.288145 0.29825 0.262145 -0.261114 -0.172095 -0.101584 -0.160652 0.13869 -0.284626 0.328912 5.58784E-5 0.0544569 -0.394517 -0.0641647 0.155805 -0.137321 0.00202598 -0.490463 0.319764 0.334223 -0.234168 0.0452229 -0.173329 -0.124839 -0.247156 0.500649 0.0334363 0.292717 -0.422688 -0.512248 -0.194105 0.388908 0.198186 0.443172 0.171232 -0.230994 0.150507 0.300392 -0.318638 0.0480113 0.0715013 -0.0617274 0.200481 -0.105748 -0.186356 -0.142026 -0.240965 -0.126308 0.149345 0.0223134 -0.0156808 -0.219118 0.0899172 -0.0556498 0.365426 -0.0904039 -0.104049 0.233745 0.275964 0.144292 0.297155 0.136423 -0.597378 0.0661104 -0.0129148 0.031962 0.116689 -0.117056 -0.229223 -0.079063 0.216171 0.150399 0.133479 -0.095426 0.0225363 0.198194 -0.162444 0.318397 -0.318393 -0.0368767 -0.140118 -0.0727401 0.157563 -0.101207 -0.11047 0.429257 -0.516087 -0.127948 0.00826508 0.185484 -0.0413598 -0.195979 0.149269 0.150104 -0.23783 -0.0937117 -0.237521 0.359514 0.205351 -0.471276 0.0882701 -0.351662 -0.153632 -0.238244 0.07888 0.414798 -0.275603 -0.289554 -0.25263 -0.228547 0.0424987 -0.0709101 -0.252494 0.076677 -0.0778513 -0.126399 -0.127454 -0.189313 -0.244639 -0.458029 -0.174399 -0.00195473 0.00934171 -0.0766267 0.254512 -0.017517 -0.2955 -0.579793 0.132914 -0.0845186 0.243379 -0.266432 0.0688822 0.2344 0.00596534 0.121622 0.240993 -0.131321 -0.346836 -0.106358 0.315271 -0.249123 0.159975 -0.212023 0.0588369 -0.207273 -0.400233 0.283614 0.411622 0.15566 0.123212 0.270503 0.0902249 -0.209771 -0.319344 -0.243132 -0.109175 0.063814 5.73868E-4 0.0214844 -0.237749 -0.0413766 -0.16554 -0.162789 -0.0405684 0.190422 0.0745072 -0.37272 0.127812 -0.20145 0.100295 -0.110795 0.169578 0.118795 0.0320995 -0.00495684 -0.451548 0.28312 0.190617 -0.296621 -0.332801 -0.0404427 -0.170034 -0.0324415 0.276271 -0.0787405 -0.128124 -0.0628586 0.168956 0.253396 0.171962 -0.091893 -0.0653894 -0.0797558 -0.113208 0.103486 0.0451309 -0.374009 -0.306934 -0.0637249 0.237541 -0.0219965 -0.545205 0.0355113 -0.535043 0.306808 -0.140549 0.169964 -0.111864 0.194005 0.079218 -0.00945568 0.120763 0.135727 -0.167179 -0.0409251 -0.144757 0.344367 -0.072791 0.0228328 -0.0661974 0.0818627 0.0129121 0.343988 0.357745 -0.242284 0.084527 -0.115711 0.238371 0.249748 0.276295 -0.264619 -0.355284 -0.290929 -0.236612 -0.223963 0.283218 0.0550619 0.151893 -0.303595 -0.191886 -0.286573 0.376825 -0.363557 -0.0271883 -0.274989 -0.1215 0.0388371 0.545382 0.311852 0.0349881 0.14357 -0.366078 0.300828 0.0216351 -0.241453 0.229722 -0.178367 -0.217313 0.0470873 -0.100721 0.127405 0.556127 -0.0842833 -0.30611 -0.00799758 0.129624 0.00823307 0.0489967 -0.128303 -0.224567 0.297066 -0.167377 0.104065 0.0201663 -0.0589738 0.305388 -0.322781 0.0787722 -0.383784 -0.00513816 0.139065 0.218662 0.214022 -0.0867392 0.342311 -0.091321 0.305854 -0.176384 0.209387 -0.0285138 0.260397 -0.256667 0.341256 -0.0943919 0.111507 -0.130805 0.100617 -0.330822 -0.0477018 -0.0991241 -0.304695 -0.103014 -0.0490138 -0.2958 0.151854 -0.0918226 -0.263409 0.110901 0.151753 -0.0264072 0.528283 -0.251739 0.301294 0.0513349 0.375265 0.0435509 0.178595 0.0202297 0.217419 -0.100767 -0.101563 -0.22204 -0.214811 0.318726 0.328457 0.182006 0.227143 0.218103 0.0149074 0.120815 -0.118308 -0.0991535 -0.0377694 -0.0337282 -0.63791 -0.0161703 0.211515 -0.0505662 -0.237441 -0.077555 -0.285273 0.480754 0.262349 -0.515616 -0.322342 0.417973 -0.12072 0.221619 0.056473 0.114487 -0.0948271 0.100501 0.0941732 0.00390192 -0.256929 0.670158 0.124074 0.0159428 -0.26515 0.463055 0.0251329 0.365928 0.127091 -0.517102 0.0922803 0.213581 -0.258167 0.100606 -0.298647 -0.135394 0.0532348 -0.117121 0.108209 -0.151502 0.0964739 0.251382 0.2084 -0.426081 0.00544171 -0.0529912 -0.291139 0.254362 0.298797 0.285546 -0.185382 -0.0644661 -0.131136 0.179808 0.605082 -0.188765 0.201421 0.102605 -0.309522 0.628482 0.337014 0.0608797 0.0997269 0.470593 -0.0726899 0.190327 -0.450111 -0.25306 -0.13009 -0.0434094 -0.158516 -0.101907 -0.466439 0.0794645 0.247051 0.0309097 0.200497 -0.317466 -0.450311 -0.162728 0.0030909 0.231751 0.263149 0.299585 -0.284096 0.229335 -0.0849057 -0.180487 -0.178428 -0.0513487 -0.251301 -0.0155005 0.0329419 -0.0995705 0.158836
science 0.163512 0.130126 -0.27598 -0.305283 -0.00194389 -0.494667 -0.2663 0.174665 0.408951 0.275246 -0.0551767 0.138649 0.0314665 0.0990241 0.210081 -0.112653 -0.0604658 -0.0444455 -0.384749 0.197723 -0.0317842 -0.176132 0.285913 -0.0382776 -0.038481 0.158366 0.139673 -0.114066 -0.256744 -0.0328749 0.0257473 0.477031 0.117089 -0.140973 -0.147997 0.121672 -0.390586 0.0962491 0.12985 -0.108752 -0.309554 0.0224253 -0.0818337 -0.177438 0.182736 0.192969 -0.27037 0.433234 -0.104224 -0.274701 0.174555 -0.221838 -0.205164 -0.115671 -0.020685 0.148395 -0.280848 0.124358 0.0508842 -0.440735 -0.0372889 -0.0632732 0.152844 0.13222 0.219521 1.92843E-4 -0.217635 0.2412 -0.410095 -0.215259 -0.061392 0.0556038 -0.013844 0.177625 0.0746873 0.0482549 0.0575398 0.105028 -0.098199 0.206317 0.267421 0.0352613 -0.101857 -0.171502 0.105953 0.0487232 0.23223 -0.326569 -0.0134376 0.0266084 0.0236891 0.273019 0.0251408 0.22389 -0.2764 -0.134734 -0.131994 0.154113 0.0947234 0.0802529 0.107772 0.10459 -0.197019 0.369302 0.184147 -0.338693 -0.121911 -0.0108555 0.26738 -0.248482 -0.219994 -0.0150835 0.234738 -0.171894 -0.0379577 0.366129 0.118365 0.130068 -0.157954 -0.0638088 0.00380697 0.372486 -0.054863 -0.359258 -0.17688 -0.395293 -0.0605406 0.106848 -0.0460478 -0.116925 0.180413 0.0497708 -0.148924 -0.269285 -0.0279537 0.257845 -0.0266336 -0.264325 -0.240918 -0.267567 0.384949 0.00821819 0.321418 0.0245717 -0.0577907 0.17186 -0.326435 0.546593 -0.125354 -0.0262743 0.151632 -0.314232 -0.0993039 0.151162 0.0588451 0.440001 -0.0992091 0.0573305 0.0220285 0.043811 -0.302887 0.322093 0.0323792 0.00169854 -0.193502 0.0339633 -0.201193 0.0619228 -0.182492 -0.0561765 -0.0920673 -0.298058 0.209127 -0.0933099 0.0454486 -0.0611332 0.25123 0.0895427 0.120359 -0.122525 -0.180911 -0.140993 -0.033024 -0.0303536 0.118558 0.109685 0.0265736 -0.0349049 -0.224921 0.345958 -0.133624 -0.0446121 0.212879 0.0291039 -0.10663 -0.00236571 -0.00637206 -0.681015 -0.00229713 0.122896 -0.0109254 -0.0992404 0.200342 0.048664 0.1387 -0.190786 0.232355 0.160754 -0.0487451 0.113711 -0.152347 0.009941 -0.24245 -0.075484 -0.0557156 -0.021925 -0.257266 0.0159414 0.132666 -0.0480931 -0.072178 0.171784 0.00705084 -0.046771 -0.0983369 0.00712695 0.367362 -0.172441 0.0541361 -0.0910171 0.142358 -0.156343 0.116517 0.0956785 -0.0142994 0.10466 -0.0827702 -0.222319 -0.205714 -0.0331552 -0.0314382 -0.012272 -0.272352 0.142004 -0.0013341 -0.0729141 -0.0182802 -0.129765 -0.0661117 -0.193874 -0.374377 -0.0163055 -0.14971 0.187046 0.0181526 0.122553 -0.126986 -0.139649 0.0982251 0.101321 0.294141 -0.0816371 -0.0668427 -0.0875354 0.0404657 0.0977634 -0.254351 0.202724 0.194229 -0.166647 0.0551018 0.135228 0.08263 0.0140002 -0.0978489 -0.163739 0.102295 -0.0429608 0.163581 0.086616 0.146712 -0.22226 -0.0218646 -0.157127 -0.0750469 -0.155816 0.00725633 -0.12124 0.123308 0.135143 0.151014 0.26657 -0.152073 0.269237 0.0878323 0.132584 -0.26925 -0.0264332 -0.350246 0.0180252 -0.114574 -0.177127 0.126567 0.129531 0.0687615 0.135201 -0.300973 0.379 0.00524733 0.296321 -0.242173 -0.171071 -0.0993862 -0.0250718 0.0196746 -0.138578 0.0697187 -0.23876 0.175156 -0.201803 0.0969203 -0.455236 0.00247468 0.24467 0.366439 0.0987302 0.134119 0.0733291 -0.0187362 -0.118679 0.00314154 0.168964 -0.00195897 -0.108442 0.0935796 0.21958 -0.101662 0.0562073 -0.00361673 -0.136192 -0.0215552 -0.0467867 -0.260169 -0.167163 -0.0103542 -0.13767 -0.487119 0.0129629 0.233615 0.0312058 0.264654 0.105106 0.0717352 -0.00735606 0.106845 0.0115935 -0.0531852 0.179431 -0.145417 0.156673 -0.00557963 0.333766 -0.0939275 -0.00405078 0.129965 0.0790269 0.0289582 -0.0871778 0.00629879 0.0162193 0.184835 0.118149 0.144918 0.0333464 0.289218 0.356753 -0.0861007 -0.0329784 -0.218218 0.204607 0.0392015 -0.152977 0.0508192 0.0881831 -0.022581 -0.0317764 0.303779 0.13905 0.341977 -0.318051 0.379894 -0.381899 -0.0873579 -0.133474 0.0563978 -0.185213 -0.145615 0.318353 -0.191107 0.141833 -0.0682976 -0.0707641 -0.29402 -0.0365295 0.248384 -0.0269714 0.0634135 0.0274012 -0.389998 -0.34359 0.128265 -0.128522 0.0559471 0.104202 -0.340362 -0.0409285 0.192672 0.342858 -0.120651 0.165189 -0.183903 -0.0749363 -0.161459 -0.0494864 -0.112835 -0.275391 0.0280468 0.178234 -0.231704 -0.251745 0.148132 -0.36458 0.123466 0.225508 -0.18755 0.00108847 0.052011 -0.0930854 0.368031 0.0478308 -0.0218535 0.0855114 0.335569 -0.342596 -0.231451 -0.254462 -0.202633 -0.168181 -0.149623 -0.246634 0.0257646 0.20845 0.253868 0.0904026 -0.239263 0.312926 -0.329595 -0.250502 -0.259171 0.01006 -0.40119 0.0431696 0.0694909 -0.461727 -0.123353 -0.0447845 0.340282 -0.0579625 -0.0579603 -0.0140064 0.0748084 0.0458523 -0.180093 -0.123384 -0.0356776 0.0515396 -0.300971 -0.73705 -0.300324 0.28675 -0.0771522 0.0498117 -0.300544 -0.126698 0.182602 0.132011 -0.0177492 -0.0449177 0.38526 0.0033468 -0.238562 0.432309 0.192208 -0.129677 -0.123155 -0.227742 0.0690014 -0.0976429 -0.298393 0.363628
